<?xml version="1.0"?>
<opencv_storage>
<my_svm type_id="opencv-ml-svm">
  <svm_type>C_SVC</svm_type>
  <kernel><type>RBF</type>
    <gamma>1.0000000000000001e-05</gamma></kernel>
  <C>2.5000000000000000e+00</C>
  <term_criteria><epsilon>2.2204460492503131e-16</epsilon>
    <iterations>1000</iterations></term_criteria>
  <var_all>95</var_all>
  <var_count>95</var_count>
  <class_count>2</class_count>
  <class_labels type_id="opencv-matrix">
    <rows>1</rows>
    <cols>2</cols>
    <dt>i</dt>
    <data>
      -1 1</data></class_labels>
  <sv_total>1821</sv_total>
  <support_vectors>
    <_>
      4.18607208e+02 -1.42128464e+02 120. -1. 7.95495148e+01
      -8.83883476e+00 -1.17733276e+02 1.19854599e+02 -7. 5.25000000e+01
      5.00000000e-01 21. -7.15000000e+01 32. 4.50000000e+00 3.
      1.76069595e+02 1.42835571e+02 1.19501045e+02 7.77817440e+00
      -5.58614349e+01 -7.45000000e+01 5.00000000e-01 -4.34870682e+01
      -1.94454365e+01 -1.73241158e+01 1.02530479e+01 -10.
      -1.85000000e+01 -6.50000000e+00 13. 5.00000000e-01 -18.
      1.25000000e+01 -20. 3.74766579e+01 1.83847771e+01 -4.94974756e+00
      9.81817749e+02 -1.54502838e+02 2.38500000e+02 -132. 4.41941757e+01
      8.94490051e+01 -1.31875412e+02 -3.14662514e+01 -3. 2.65000000e+01
      2.45000000e+01 18. -1.33500000e+02 -4. -1.95000000e+01 2.
      2.65872162e+02 1.85261978e+02 1.91625931e+02 -4.24264050e+00
      -1.20208149e+01 40. -21. 2.47487378e+00 3.71231079e+01
      -2.22738628e+01 3.00520382e+01 6. 1.25000000e+01 -1.55000000e+01
      18. -2.95000000e+01 -1. 2.15000000e+01 -2. 4.24264050e+00 0.
      1.76776695e+01 6.37500000e+02 -36. 4.34870682e+01 -1.61573898e+02
      -3.15000000e+01 -59. 4.50000000e+00 -38. -3.81837654e+01
      1.34350290e+01 4.59619408e+01 -3.74766579e+01 1.34350290e+01
      7.07106781e+00 -5.86898613e+01 1.20208149e+01 172. 131. 98.</_>
    <_>
      7.77640686e+02 -6.77054749e+01 139. 6.72500000e+01 5.02045822e+01
      -3.18198051e+01 6.36396122e+00 -1.53795731e+02 36. -35. 30. 15.
      -87. 78. -6.25000000e+01 0. 3.39411255e+02 3.53553406e+02
      3.30925964e+02 4.41941738e+00 -1.99757671e+01 2. 4.17500000e+01
      6.36396122e+00 -1.20208149e+01 -6.36396122e+00 8.13172817e+00 0.
      -9. -2. -15. -7. 16. 6.50000000e+00 0. 0. 5.65685415e+00
      8.48528099e+00 5.35456604e+02 -3.05823689e+01 216. 3.37500000e+01
      2.20617310e+02 -3.88908730e+01 -1.90211731e+02 5.90434151e+01
      1.65000000e+01 7.55000000e+01 26. -59. 1.15000000e+01
      -5.75000000e+01 83. -3.25000000e+01 1.64048767e+02 2.64457947e+02
      3.11834076e+02 2.06828728e+01 -2.13899803e+01 -1.25000000e+01
      3.25000000e+00 -1.41421356e+01 -8.48528099e+00 -7.07106781e+00
      -2.72236118e+01 -1.65000000e+01 -3.50000000e+00 -7. -3.
      -1.15000000e+01 4.50000000e+00 -6. 5.00000000e-01 0.
      -1.27279224e+01 -1.06066017e+01 2.96750000e+02 3.67500000e+01
      1.22683029e+02 -2.82842708e+00 1.70500000e+02 -37. -46. 22.
      2.26274166e+01 4.17192993e+01 1.34350290e+01 -3.88908730e+01
      2.40416298e+01 -4.10121918e+01 5.51543274e+01 -4.38406219e+01 178.
      213. 228.</_>
    <_>
      1.14851819e+03 4.18960762e+01 1.62500000e+01 68. -2.82842708e+00
      1.16672621e+01 -2.93449306e+01 2.58093967e+01 40. 1. 9.
      -2.55000000e+01 7.50000000e+00 0. 2.15000000e+01 0. 2.28395493e+02
      1.52735062e+02 1.92333038e+02 -3.65927773e+01 -1.53795729e+01
      -5.32500000e+01 -2.65000000e+01 -3.67695541e+01 1.06066012e+00
      -6.71751451e+00 4.34870682e+01 34. -19. -9. 7.50000000e+00
      7.50000000e+00 0. -3.50000000e+00 0. -2.89913788e+01
      -4.66690483e+01 -6.50538254e+01 7.82767212e+02 1.82433548e+02 8.
      3.15000000e+01 3.21733589e+01 1.29754089e+02 4.24264050e+00
      2.89913788e+01 -29. 1.55000000e+01 -17. 6.15000000e+01 16. 25. 1.
      8. 1.40714249e+02 1.63341660e+02 1.76776703e+02 5.19723473e+01
      4.13657455e+01 1.95000000e+01 -1.75000000e+01 -1.94454365e+01
      -3.14662514e+01 -6.50538254e+01 2.89913788e+01 -4. -5.00000000e-01
      17. 1.15000000e+01 -16. -9. -33. 42. -1.34350290e+01
      3.60624466e+01 2.26274166e+01 6.49750000e+02 6.52500000e+01
      2.12132025e+00 1.44956894e+01 -20. 106. 3.65000000e+01 -16.
      1.76776695e+01 -1.06066017e+01 0. 2.26274166e+01 1.76776695e+01
      -1.13137083e+01 3.39411240e+01 -1.13137083e+01 197. 141. 182.</_>
    <_>
      9.30022217e+02 -6.02808533e+01 -7. 2.05750000e+02 7.49533157e+01
      -1.27279221e+02 6.71751480e+01 -1.08540894e+02 -11. 46. -23. -55.
      5.00000000e-01 6.15000000e+01 3.15000000e+01 -61. 2.55265549e+02
      2.32638138e+02 2.41123413e+02 -1.13313858e+02 -2.52790680e+01 -20.
      1.92500000e+01 4.38406219e+01 -9.47523117e+01 2.26274166e+01
      -2.93449306e+01 -16. 51. -42. 16. 5.00000000e-01 2.25000000e+01
      -2.05000000e+01 -1. -3.53553391e+00 -1.90918827e+01
      -2.75771637e+01 5.84070190e+02 1.44603333e+02 -4.12500000e+01
      2.21750000e+02 -3.53553391e+01 -7.95495148e+01 2.04000305e+02
      -1.41421356e+01 -11. -9. 22. -7.95000000e+01 3.55000000e+01 60.
      9.50000000e+00 -1.05000000e+01 1.55563492e+02 2.78600067e+02
      3.16076721e+02 2.47487378e+00 -7.00035706e+01 1.07750000e+02
      6.42500000e+01 1.13137083e+01 -3.14662514e+01 -3.14662514e+01
      3.95979805e+01 19. 9. 36. -5.55000000e+01 -3.50000000e+00 22.
      1.45000000e+01 -1.50000000e+00 4.52548332e+01 4.10121918e+01
      9.19238853e+00 499. 52. -1.64048767e+02 -6.08111839e+01
      -2.95000000e+01 -4.75000000e+01 1.04500000e+02 -7.45000000e+01
      -3.53553391e+01 2.33345242e+01 -4.24264069e+01 3.53553391e+00
      5.72756500e+01 -3.11126976e+01 -8.48528099e+00 -3.53553391e+00
      111. 72. 129.</_>
    <_>
      1.14975562e+03 4.49012794e+01 4.07500000e+01 6.07500000e+01
      1.87383289e+01 -3.74766579e+01 -7.35391083e+01 5.83363113e+01 11.
      1.95000000e+01 -4.75000000e+01 1.65000000e+01 -29. 0.
      6.15000000e+01 1. 2.26274170e+02 2.26274170e+02 2.65872162e+02
      -6.50538254e+01 -3.78302116e+01 7.25000000e+00 1.12500000e+01
      -1.87383289e+01 6.36396122e+00 -3.53553391e+01 -8.83883476e+00 3.
      -5.50000000e+00 1.55000000e+01 -4.50000000e+00 -3. 0.
      1.05000000e+01 -19. 1.97989902e+01 -1.97989902e+01 -3.39411240e+01
      6.09702820e+02 -2.06828728e+01 -95. -1.27500000e+01
      -1.09955101e+02 2.72236118e+01 -1.62634563e+01 2.43951836e+01 -22.
      -1.01500000e+02 69. -1.25000000e+01 0. -27. 8.50000000e+00 10.
      1.75362488e+02 1.71826950e+02 1.97989899e+02 -1.01646599e+02
      4.86135902e+01 49. 1.25000000e+00 -2.08596497e+01 -2.47487378e+00
      2.12132025e+00 3.53553385e-01 0. -1.15000000e+01 -7.
      1.50000000e+00 0. -1. 5.00000000e-01 0. -4.24264069e+01
      -4.59619408e+01 -4.80832596e+01 8.26250000e+02 -1.81750000e+02
      -2.01878983e+02 8.48528099e+00 -2.55000000e+01 -16. 0. 4.
      -5.65685415e+00 -5.02045822e+01 1.76776695e+01 -2.05060959e+01 0.
      0. -5.65685415e+00 0. 255. 255. 255.</_>
    <_>
      4.78004181e+02 -1.44956894e+02 -55. 32. -1.94454365e+01
      -2.22738628e+01 4.41941757e+01 -4.59619427e+00 -7.50000000e+00 -8.
      5.00000000e-01 -17. -1.45000000e+01 19. 0. -5.50000000e+00
      1.71826950e+02 1.51320847e+02 1.23036583e+02 -4.31335144e+01
      2.75771637e+01 -1.50000000e+00 3.15000000e+01 -1.76776695e+00
      -6.71751451e+00 -7.42462111e+00 2.51022911e+01 -1.50000000e+00 -1.
      -4.50000000e+00 0. -1.45000000e+01 4. 0. 1.05000000e+01
      -4.59619408e+01 -2.54558449e+01 -1.41421356e+01 9.56185120e+02
      -2.35113010e+01 31. -1.15750000e+02 -8.23779373e+01 1.38239380e+02
      -1.14551300e+02 4.98510284e+01 -8. -4.05000000e+01 72.
      7.50000000e+00 -6.50000000e+00 -7.45000000e+01 3.15000000e+01 0.
      2.88499573e+02 2.98399048e+02 2.98399048e+02 5.00278053e+01
      -1.67937870e+01 16. -1.82500000e+01 1.76776695e+00 -5.30330086e+00
      2.12132034e+01 -3.99515343e+01 8. 4.50000000e+00 0.
      -7.50000000e+00 -6.50000000e+00 1.35000000e+01 -1.75000000e+01 0.
      1.55563488e+01 2.54558449e+01 2.54558449e+01 6.22500000e+02 -23.
      -3.14662514e+01 -7.24784470e+01 -9.15000000e+01 100.
      -6.25000000e+01 34. -5.65685415e+00 -4.31335144e+01 2.54558449e+01
      1.97989902e+01 -1.06066017e+01 -3.67695541e+01 1.55563488e+01 0.
      193. 154. 141.</_>
    <_>
      1.03219910e+03 1.86852966e+02 4.50000000e+00 -9.72500000e+01
      -2.36880779e+01 4.84368134e+01 2.08596497e+01 -9.97020569e+01
      2.85000000e+01 11. -3. 8.55000000e+01 -121. 7.55000000e+01 12.
      -42. 3.14662506e+02 3.36582825e+02 3.45775208e+02 -2.10364265e+01
      1.11369314e+01 -6.50000000e+00 1.38250000e+02 4.98510284e+01
      2.58093967e+01 -8.16708298e+01 -4.03050880e+01 -1.35000000e+01 11.
      -18. 1.85000000e+01 0. 3.50000000e+00 12. -52. -1.06066017e+01
      -1.13137083e+01 6.36396122e+00 6.98267944e+02 1.52735062e+02
      2.26750000e+02 -1.03750000e+02 -1.08540894e+02 1.45664001e+02
      -3.95979805e+01 -5.40936699e+01 8.50000000e+00 12. 7.55000000e+01
      -1.85000000e+01 -47. -66. 3.85000000e+01 -68. 1.73241165e+02
      2.32638138e+02 2.84964020e+02 -5.05581360e+01 3.74766579e+01
      4.97500000e+01 -1.04750000e+02 1.16672621e+01 -1.17379723e+02
      5.16187935e+01 -1.18440384e+02 -2.85000000e+01 -7. 1.85000000e+01
      -3.55000000e+01 65. 31. -3.85000000e+01 26. -7.14177856e+01
      -4.03050880e+01 4.03050880e+01 5.19500000e+02 123. 8.16708298e+01
      1.14904854e+02 -107. 1.97500000e+02 7.50000000e+00 51. 0.
      -4.24264050e+00 2.19203110e+01 1.27279224e+01 -1.01116272e+02 0.
      1.69705620e+01 1.27279224e+01 72. 96. 173.</_>
    <_>
      7.60493347e+02 -3.18198059e+02 1.67500000e+01 -1.05750000e+02
      3.28804665e+01 -1.97989902e+01 -7.56604233e+01 -1.52027960e+01 0.
      2.05000000e+01 -13. 0. -30. -34. 7.50000000e+00 -7. 3.28097534e+02
      3.40825470e+02 3.52139191e+02 -2.54558449e+01 -2.72236118e+01
      1.67500000e+01 8.75000000e+00 1.44956894e+01 -1.41421354e+00 0.
      -5.30330086e+00 0. -5.50000000e+00 13. 0. 4. -3. 5.00000000e-01 0.
      0. -2.82842708e+00 0. 6.13591919e+02 -2.68523804e+02 -34.
      -1.68250000e+02 -2.68700581e+01 4.94974747e+01 -8.66205826e+01
      -6.85893555e+01 0. -23. -12. 23. -4.55000000e+01 -16.
      -1.85000000e+01 -6.50000000e+00 3.23854919e+02 3.33047302e+02
      3.45775208e+02 7.26552200e+01 3.62392235e+01 -19. 7.50000000e-01
      -1.27279224e+01 -1.41421356e+01 8.83883476e+00 -1.41421354e+00 0.
      -3. -12. 3. -4.50000000e+00 -2. -4.50000000e+00 5.00000000e-01
      4.24264050e+00 4.94974756e+00 2.12132025e+00 3.26750000e+02
      -2.14750000e+02 1.41421356e+01 -1.35410950e+02 0. 40. -94.
      -4.15000000e+01 0. 0. 1.41421356e+01 4.24264050e+00
      -3.88908730e+01 -1.06066017e+01 -7.77817440e+00 -1.13137083e+01
      219. 226. 235.</_>
    <_>
      7.09581665e+02 -2.89206665e+02 4.75000000e+00 2.02500000e+01
      5.23259010e+01 -7.03571243e+01 1.52027960e+01 -1.55563488e+01 26.
      22. -9.50000000e+00 -48. -23. 2.05000000e+01 0. -12.
      2.55265549e+02 2.82842712e+02 3.41532562e+02 2.68700581e+01
      -7.17713394e+01 -6.92500000e+01 3.87500000e+01 -1.62634563e+01
      -2.86378250e+01 1.80312233e+01 1.20208149e+01 -4. -7.
      -9.50000000e+00 -5. 4. 7.50000000e+00 10. -3. 3.53553391e+00
      9.89949512e+00 6.36396122e+00 6.61498413e+02 -5.26794548e+01 220.
      -2.11500000e+02 1.83494217e+02 -3.88908720e+00 -5.48007774e+01
      6.01040745e+00 23. 6.25000000e+01 -2.50000000e+00 4. -3.
      -4.95000000e+01 -1.75000000e+01 22. 2.21324417e+02 3.01934601e+02
      3.29511749e+02 8.44992599e+01 -2.08596497e+01 -2.15000000e+01 1.
      -1.94454365e+01 -9.54594135e+00 1.44956894e+01 -2.01525440e+01 -2.
      -3.50000000e+00 -2.50000000e+00 -4. -3. 1.85000000e+01
      -1.15000000e+01 7. 1.76776695e+01 2.89913788e+01 2.26274166e+01
      421. -4.75000000e+01 1.78544464e+02 -1.93393707e+02 125.
      7.50000000e+00 -7.45000000e+01 16. 2.26274166e+01 3.81837654e+01
      5.65685415e+00 4.94974756e+00 7.77817440e+00 -7.63675308e+01
      7.77817440e+00 -1.48492422e+01 207. 213. 196.</_>
    <_>
      1.04457349e+03 2.68877350e+02 -5.07500000e+01 4.35000000e+01
      -6.50538254e+01 2.22738628e+01 1.13844193e+02 -7.00035706e+01 -23.
      -16. 2.50000000e+00 14. 3.25000000e+01 1.55000000e+01 2. -46.
      2.82842712e+02 3.21026489e+02 3.43653900e+02 3.00520372e+00
      -3.37643471e+01 -3.52500000e+01 13. -1.34350290e+01
      -6.01040745e+00 -4.24264050e+00 -2.12132025e+00 0. -10.
      -2.50000000e+00 -1. 5.00000000e-01 4.50000000e+00 2. 6.
      2.82842708e+00 0. 1.41421354e+00 7.10465515e+02 2.49785477e+02
      1.55500000e+02 4.27500000e+01 7.42462111e+00 1.39653595e+02
      -6.04576302e+01 4.45477257e+01 1.50000000e+00 3. 2.55000000e+01
      57. -2.75000000e+01 -2. 23. -22. 2.21324417e+02 2.72236115e+02
      2.90620880e+02 -1.85615540e+01 7.86656265e+01 -29. -1.37500000e+01
      1.06066012e+00 -2.15667572e+01 1.94454365e+01 -3.88908730e+01
      5.00000000e-01 1. -8.50000000e+00 23. 1.55000000e+01 2. -7. -30.
      1.90918827e+01 7.77817440e+00 4.94974756e+00 5.05500000e+02 56.
      1.47431763e+02 3.71231079e+01 3. 8.65000000e+01 -50.
      6.65000000e+01 0. 1.41421354e+00 4.59619408e+01 -8.48528099e+00
      -3.46482315e+01 -2.12132025e+00 2.05060959e+01 2.12132034e+01 91.
      167. 189.</_>
    <_>
      5.18662842e+02 1.08894447e+02 2.01250000e+02 1.13250000e+02
      -9.19238853e+00 -1.08540894e+02 6.71751480e+01 -7.81352997e+01 -4.
      41. 1.85000000e+01 -74. 3. 86. -16. 1.25000000e+01 9.12167740e+01
      9.89949493e+01 5.72756500e+01 -5.65685425e+01 -1.16672621e+01
      -9.75000000e+00 4.75000000e+00 -2.68700581e+01 5.30330086e+00
      -1.06066017e+01 8.83883476e+00 -4. -6. -1.50000000e+00 -11. -3. 6.
      5. 2.50000000e+00 -2.75771637e+01 -5.23259010e+01 -4.59619408e+01
      7.09581665e+02 1.58038361e+02 207. 164. -2.01525440e+01
      -4.70226021e+01 4.87903671e+01 -3.74766579e+01 -20. 2.15000000e+01
      43. -3.95000000e+01 -2.05000000e+01 6.45000000e+01 -8.50000000e+00
      -1.05000000e+01 1.51320847e+02 1.58391922e+02 1.04651802e+02
      2.01878983e+02 1.06066012e+00 -17. 35. 1.37885818e+01
      2.51022911e+01 -1.50728869e-14 -2.26274166e+01 11. -1.15000000e+01
      11. 5.00000000e-01 6.50000000e+00 -9.50000000e+00 8.50000000e+00
      -2.05000000e+01 6.36396103e+01 6.36396103e+01 6.50538254e+01
      1.92750000e+02 2.37500000e+01 1.80312233e+01 -8.48528099e+00 -48.
      -7.65000000e+01 2.25000000e+01 -2.75000000e+01 -2.19203110e+01
      3.18198051e+01 -2.12132025e+00 -9.89949512e+00 -7.77817440e+00
      2.40416298e+01 -2.89913788e+01 1.97989902e+01 40. 33. 25.</_>
    <_>
      8.74514282e+02 -3.85903534e+02 -198. 1.04750000e+02
      -3.64160004e+01 -1.91272385e+02 -1.41421354e+00 5.33865623e+01
      -16. -4.50000000e+00 -1.35000000e+01 -81. -9. 6. 16.
      -1.55000000e+01 2.93449310e+02 3.16076721e+02 3.29511749e+02
      -1.85615540e+01 3.76534348e+01 -3. 3.37500000e+01 1.52027960e+01
      -8.13172817e+00 -5.65685415e+00 5.33865623e+01 4. -3.50000000e+00
      5.00000000e-01 14. -3. -4. 30. -1.50000000e+00 -2.05060959e+01
      2.19203110e+01 1.55563488e+01 5.79120483e+02 -1.95515030e+02
      -1.06750000e+02 -5.47500000e+01 1.06066012e+00 -8.41457062e+01
      -4.17192993e+01 -2.51022911e+01 12. -5.50000000e+00
      -1.45000000e+01 -4.85000000e+01 17. -50. 1.45000000e+01 -7.
      2.50315796e+02 2.82135620e+02 2.62336609e+02 2.29809704e+01
      1.13137083e+01 -1.77500000e+01 7.50000000e-01 -1.02530479e+01
      -2.89913788e+01 6.36396122e+00 1.52027960e+01 1. -5.00000000e-01
      5.00000000e-01 -1.55000000e+01 9. 0. -1.45000000e+01 21. 0.
      3.18198051e+01 3.18198051e+01 3.56500000e+02 -164. -7.31855545e+01
      -7.31855545e+01 2.50000000e+00 -25. -1.45000000e+01 -14.
      3.53553391e+00 0. -1.06066017e+01 -6.36396122e+00 -4.24264050e+00
      -1.20208149e+01 0. 0. 177. 177. 126.</_>
    <_>
      5.20253784e+02 -6.09879608e+01 -2.12500000e+01 11. -3.42946777e+01
      -4.24264050e+00 4.94974756e+00 -6.36396103e+01 -4.15000000e+01 35.
      -38. 44. -5.25000000e+01 4.55000000e+01 -21. -13. 7.56604233e+01
      2.19203110e+01 9.89949512e+00 -4.86135902e+01 -1.23743689e+00
      -4.12500000e+01 -5.05000000e+01 -4.59619427e+00 4.24264050e+00
      4.94974756e+00 3.04055920e+01 2.15000000e+01 -14. 6. -12.
      2.05000000e+01 -2.75000000e+01 -2. 13. -2.61629505e+01
      -6.36396122e+00 2.82842708e+00 1.06879187e+03 2.89913788e+01
      1.78750000e+02 -1.72500000e+01 1.41421354e+00 1.16672621e+01
      8.55599213e+01 -8.52063675e+01 -5.50000000e+00 1.15000000e+01 49.
      -3.95000000e+01 5.00000000e-01 4.75000000e+01 -43. -1.75000000e+01
      2.77892975e+02 2.37587875e+02 1.92333038e+02 -3.50017853e+01
      1.48492422e+01 4.32500000e+01 2.12500000e+01 4.24264050e+00
      1.52027960e+01 2.05060959e+01 -2.93449306e+01 1.50000000e+00
      5.00000000e-01 8. -3.50000000e+00 -7.50000000e+00 2.15000000e+01
      -16. -7.50000000e+00 1.90918827e+01 7.07106781e+00 -8.48528099e+00
      7.36500000e+02 -53. 7.17713394e+01 -1.30814753e+01 -5.00000000e-01
      -19. -3.35000000e+01 25. 0. 1.90918827e+01 8.48528099e+00
      -1.13137083e+01 -9.89949512e+00 -1.06066017e+01 1.76776695e+01
      -9.19238853e+00 196. 163. 130.</_>
    <_>
      7.29910950e+02 -1.00232384e+02 3.37500000e+01 171. 2.89913788e+01
      -4.34870682e+01 5.93969688e+01 -1.34350290e+01 11. -2. 22.
      -6.75000000e+01 -21. 56. 5.00000000e-01 -2.50000000e+00
      1.46371109e+02 1.49199524e+02 1.66877197e+02 -2.27511612e+02
      -4.50780563e+01 -5.32500000e+01 106. 5.65685415e+00
      -4.27799606e+01 6.29325027e+01 7.07106781e+00 4. 4. -17.
      -3.55000000e+01 -5. 35. 3.50000000e+00 -2.50000000e+00
      -7.99030685e+01 -8.27314911e+01 -8.90954514e+01 8.39335754e+02
      2.59154633e+02 1.16250000e+02 -3.27500000e+01 2.19203110e+01
      1.37885818e+01 3.64160004e+01 -1.76776695e+01 18. -10. 34.
      -2.50000000e+00 1.85000000e+01 17. -19. -6. 1.85261978e+02
      2.30516815e+02 2.66579254e+02 2.22738628e+01 2.54558449e+01
      -3.07500000e+01 -1.92500000e+01 -2.12132025e+00 4.20728531e+01
      -3.88908720e+00 -6.36396122e+00 0. -10. -8. 2.55000000e+01
      -7.50000000e+00 -2. -4. -1. 1.27279224e+01 1.83847771e+01
      1.06066017e+01 5.55500000e+02 1.52500000e+02 1.17379723e+02
      1.34350290e+01 30. -90. 59. -15. 9.19238853e+00 1.48492422e+01
      3.88908730e+01 -3.74766579e+01 4.10121918e+01 0. -1.76776695e+01
      -3.53553391e+00 118. 132. 144.</_>
    <_>
      6.51598877e+02 -1.59806137e+02 -1.22750000e+02 8.75000000e+00
      -6.43467178e+01 -1.37885818e+01 1.21975922e+02 -4.31335144e+01 1.
      -35. 3.50000000e+00 -35. 1.15000000e+01 19. -38. -5.
      1.97989899e+02 1.48492432e+02 1.59099030e+02 -7.07106781e+00
      3.07591457e+01 1.02500000e+01 -2.67500000e+01 -4.03050880e+01
      2.58093967e+01 2.86378250e+01 -6.64680405e+01 -15. -11.
      1.55000000e+01 9. 3.50000000e+00 5. -23. -15. 2.96984844e+01
      -4.24264050e+00 -1.48492422e+01 1.23584583e+03 -2.91681557e+01
      -3.32500000e+01 -2. -8.06101761e+01 5.83363113e+01 -2.72236118e+01
      -1.16672621e+01 -31. -18. 7.50000000e+00 42. -31. 6.50000000e+00
      3. -1.45000000e+01 3.35168610e+02 3.23147797e+02 3.11834076e+02
      1.14020966e+02 1.36118059e+01 -1.32500000e+01 2.50000000e+00
      3.60624466e+01 -4.13657455e+01 1.87383289e+01 1.09601555e+01 20.
      2. -6.50000000e+00 -33. 24. -3.50000000e+00 -5. 9.50000000e+00
      2.82842708e+00 -4.94974756e+00 -1.62634563e+01 3.54250000e+02
      1.33250000e+02 1.42482010e+02 -1.41421354e+00 -9.85000000e+01 125.
      -1.55000000e+01 -8.95000000e+01 -2.12132034e+01 -1.20208149e+01
      1.00409164e+02 7.07106781e+00 -4.24264069e+01 2.61629505e+01
      2.82842708e+00 -7.99030685e+01 190. 170. 170.</_>
    <_>
      8.22188416e+02 1.99757671e+01 6.35000000e+01 -3.27500000e+01
      1.41421356e+01 7.28320007e+01 1.23390137e+02 -7.42462158e+01
      -3.50000000e+00 -3.45000000e+01 3.75000000e+01 -2.75000000e+01
      -2.25000000e+01 124. -8.15000000e+01 2.95000000e+01 2.47487381e+02
      2.70821899e+02 2.18496002e+02 -6.91196899e+01 -3.00520372e+00 -36.
      2.25000000e+00 2.82842708e+00 -1.41421356e+01 -2.01525440e+01
      1.83847771e+01 5.50000000e+00 5.00000000e-01 -1.75000000e+01
      1.85000000e+01 1.05000000e+01 -8. 1.15000000e+01 -1.45000000e+01
      -2.54558449e+01 -3.32340202e+01 -1.48492422e+01 9.59367126e+02
      -2.63397274e+01 2.39250000e+02 -25. 1.20208149e+01 4.70226021e+01
      1.52735062e+02 -1.64755875e+02 -16. 0. 7.25000000e+01 -92. -30.
      126. -1.31500000e+02 1.25000000e+01 3.47896545e+02 3.50017853e+02
      2.60215302e+02 1.14904852e+01 -2.66932812e+01 2.87500000e+01 -4.
      1.41421354e+00 3.53553385e-01 -1.76776695e+01 5.65685415e+00 -4.
      15. 3.50000000e+00 -9. 1. -22. 1.55000000e+01 -5.50000000e+00
      9.89949512e+00 2.12132025e+00 -2.82842708e+00 665. 2.35000000e+01
      1.07833786e+02 -1.09601555e+01 1.45000000e+01 54. 132.
      -1.18500000e+02 -3.53553391e+00 -2.96984844e+01 5.23259010e+01
      -4.66690483e+01 -2.19203110e+01 1.20915260e+02 -1.08894447e+02
      2.19203110e+01 224. 242. 193.</_>
    <_>
      1.05995312e+03 -8.55599213e+01 -74. 6.05000000e+01 3.53553391e+01
      -3.95979805e+01 3.88908720e+00 8.09637299e+01 1.15000000e+01
      -6.50000000e+00 -2.75000000e+01 -2.50000000e+00 -1. 1.50000000e+00
      -1. 5.25000000e+01 1.66170090e+02 1.55563492e+02 1.96575684e+02
      -1.17379723e+02 -6.36396122e+00 3.55000000e+01 23. 1.34350290e+01
      -1.41421354e+00 -6.01040745e+00 1.80312233e+01 2.50000000e+00
      -5.00000000e-01 6.50000000e+00 -6.50000000e+00 -5. 1.50000000e+00
      -5. 1.15000000e+01 -5.44472237e+01 -4.38406219e+01 -1.69705620e+01
      5.93085815e+02 3.58856697e+01 1.61250000e+02 -89. 7.28320007e+01
      -2.43951836e+01 -3.04055920e+01 -2.68700581e+01 2.75000000e+01
      2.35000000e+01 -1.50000000e+00 -2. 5. 0. -2.65000000e+01
      1.05000000e+01 1.56977707e+02 1.32936081e+02 1.31521866e+02
      1.96222134e+01 -1.43189125e+01 3.42500000e+01 -22. 1.76776695e+01
      1.09601555e+01 -2.12132034e+01 -2.12132025e+00 -7.50000000e+00
      6.50000000e+00 -1.50000000e+00 6. -8. 0. 5.00000000e-01
      -7.50000000e+00 2.26274166e+01 2.12132034e+01 8.48528099e+00
      4.12250000e+02 9.75000000e+00 3.81837654e+01 -3.18198061e+00 52.
      -39. 5. -2.55000000e+01 1.97989902e+01 8.48528099e+00
      -9.19238853e+00 -3.53553391e+00 9.89949512e+00 2.82842708e+00
      -1.41421356e+01 7.77817440e+00 87. 70. 99.</_>
    <_>
      9.46639221e+02 1.30284424e+02 2.26500000e+02 -7.92500000e+01
      8.48528099e+00 5.58614349e+01 -8.41457062e+01 -1.02176933e+02 -7.
      22. 11. 11. -6.35000000e+01 5.55000000e+01 -108. -6.50000000e+00
      2.72236115e+02 2.24859955e+02 2.41123413e+02 -1.29046984e+01
      -4.64922714e+01 37. -3.17500000e+01 7.77817440e+00 -1.03944695e+02
      -8.41457062e+01 3.00520382e+01 2. 8. 11. -11. 1.75000000e+01
      -2.55000000e+01 19. -6.50000000e+00 -3.60624466e+01
      -7.21248932e+01 5.58614349e+01 8.35623413e+02 2.08773270e+02 162.
      -6.75000000e+00 -3.99515343e+01 1.24097237e+02 1.95515030e+02
      -4.38406219e+01 -28. -3.50000000e+00 71. -5.25000000e+01
      5.85000000e+01 0. -23. 49. 1.04651802e+02 1.53442169e+02
      1.04651802e+02 5.17955704e+01 2.88146019e+01 -6.75000000e+01
      -2.37500000e+01 -2.47487378e+00 -1.73241158e+01 -5.30330086e+00
      -1.24450790e+02 7. -3.50000000e+00 -39. -6.50000000e+00
      2.85000000e+01 0. -23. -19. 4.80832596e+01 -3.18198051e+01
      -4.80832596e+01 5.75750000e+02 3.67500000e+01 1.58745468e+02
      5.51543274e+01 -6.95000000e+01 148. 5.55000000e+01 1.84500000e+02
      -6.15182915e+01 -4.24264050e+00 8.90954514e+01 -2.40416298e+01
      -2.12132034e+01 -5.72756500e+01 1.48492422e+01 2.40416298e+01 40.
      197. 131.</_>
    <_>
      7.69862488e+02 -3.05293365e+02 -5.45000000e+01 4.47500000e+01
      2.89913788e+01 -8.76812439e+01 3.67695541e+01 6.11647377e+01
      5.50000000e+00 1.45000000e+01 -2.15000000e+01 -4.15000000e+01
      -1.75000000e+01 3.45000000e+01 -42. 3.35000000e+01 3.21026489e+02
      3.38704163e+02 2.90620880e+02 -1.64402332e+01 2.77539406e+01 -44.
      3.12500000e+01 -2.89913788e+01 -2.19203110e+01 2.47487373e+01
      3.18198061e+00 5.50000000e+00 -2.55000000e+01 -1.05000000e+01
      1.65000000e+01 1.75000000e+01 -1.75000000e+01 12. 5.50000000e+00
      -5.65685415e+00 3.53553391e+00 -6.36396122e+00 6.00510437e+02
      -4.00045654e+02 -3.87500000e+01 -9.95000000e+01 -1.41421354e+00
      -3.71231079e+01 -1.48492422e+01 5.79827576e+01 2.50000000e+00
      -3.50000000e+00 16. -5.85000000e+01 -1.25000000e+01
      -8.50000000e+00 -2.05000000e+01 -3.15000000e+01 3.41532562e+02
      3.47189423e+02 3.06177246e+02 3.80069885e+01 -1.36118059e+01
      1.27500000e+01 -1.55000000e+01 -2.12132025e+00 -7.42462111e+00
      -3.25269127e+01 -7.77817440e+00 -2.50000000e+00 8.50000000e+00 -3.
      -1.35000000e+01 2.35000000e+01 -1.95000000e+01 1.50000000e+00
      -2.05000000e+01 1.48492422e+01 4.94974756e+00 -9.19238853e+00
      4.10500000e+02 -256. -5.55078812e+01 -6.11647377e+01 -7.
      -2.55000000e+01 58. -3.45000000e+01 7.77817440e+00 -2.05060959e+01
      1.20208149e+01 -8.48528099e+00 -1.97989902e+01 7.07106781e+00 0.
      6.36396122e+00 231. 251. 237.</_>
    <_>
      8.21834839e+02 1.45133667e+02 -5.77500000e+01 -144.
      -1.10308655e+02 8.02566223e+01 2.29809704e+01 -7.95495148e+01 13.
      -29. 2.50000000e+00 14. 4.45000000e+01 -26. 7. -6.95000000e+01
      2.80721405e+02 2.29809708e+02 2.10717819e+02 -2.95217075e+01
      -7.61907578e+01 -4.25000000e+00 6.35000000e+01 -1.48492422e+01
      1.80312233e+01 -5.30330086e+00 5.97505226e+01 32. -29.
      1.25000000e+01 -14. -6.50000000e+00 -37. 45. -1.05000000e+01
      -4.45477257e+01 -6.71751480e+01 -4.80832596e+01 6.48416931e+02
      2.27334824e+02 8.07500000e+01 1.02500000e+01 -9.40452042e+01
      1.86322632e+02 -1.44249786e+02 -1.70059174e+02 1.65000000e+01
      -2.35000000e+01 39. 6.55000000e+01 -46. 49. -4.50000000e+00 -114.
      3.16076721e+02 2.89206665e+02 2.92035095e+02 -2.82842708e+00
      -6.96500168e+01 2.25000000e+00 8.07500000e+01 -1.55563488e+01
      1.80312233e+01 -5.93969688e+01 1.30814753e+01 1.50000000e+00
      -1.35000000e+01 14. -2.35000000e+01 -20. 9. 4.50000000e+00 -14.
      1.90918827e+01 5.30330086e+01 3.32340202e+01 5.52750000e+02
      1.69250000e+02 -4.24264050e+00 -2.01525440e+01 8. 29.
      -1.25000000e+01 -16. 0. 1.13137083e+01 -1.90918827e+01
      2.19203110e+01 -1.76776695e+01 0. 0. -5.79827576e+01 152. 70. 95.</_>
    <_>
      1.12730493e+03 1.21975918e+01 1.19750000e+02 2.15000000e+01
      5.48007774e+01 2.75771637e+01 -5.37401161e+01 3.60624466e+01
      5.00000000e-01 59. -3.35000000e+01 4.05000000e+01 -37. -3. 28.
      -11. 2.80721405e+02 2.96984863e+02 3.06884338e+02 3.00520372e+00
      -3.58856697e+01 -2.50000000e-01 -1.55000000e+01 1.02530479e+01
      -2.40416298e+01 -1.83847771e+01 2.19203110e+01 -1.50000000e+00 16.
      -6.50000000e+00 -5.50000000e+00 7. -9. 0. 11. -2.33345242e+01
      -2.12132034e+01 -1.13137083e+01 7.81176208e+02 3.29334991e+02
      1.20750000e+02 -105. 3.53553391e+01 6.75286942e+01 4.77297096e+01
      -7.10642319e+01 4. 21. 17. 3.45000000e+01 43. -9.50000000e+00 -21.
      -2.95000000e+01 2.17081787e+02 1.88797516e+02 1.68291412e+02
      8.57366943e+01 -6.89429092e+00 -1.07500000e+01 -35.
      -1.20208149e+01 2.93449306e+01 -4.59619427e+00 -1.76776695e+00 0.
      -12. -1. 1.25000000e+01 0. 1.50000000e+00 -8. -5.00000000e-01
      4.03050880e+01 4.45477257e+01 3.95979805e+01 377. 2.36500000e+02
      6.54073792e+01 -2.15667572e+01 34. 2.25000000e+01 41.
      -3.05000000e+01 9.19238853e+00 7.77817440e+00 7.77817440e+00
      2.40416298e+01 2.12132034e+01 -1.41421354e+00 -1.06066017e+01
      -1.83847771e+01 82. 59. 47.</_>
    <_>
      7.42815674e+02 -2.09303604e+02 -7.62500000e+01 8.42500000e+01
      1.13844193e+02 -8.83883476e+00 1.26925667e+02 1.96575684e+02 9. 6.
      -2.45000000e+01 -85. 1.95000000e+01 -9. 4.95000000e+01
      2.55000000e+01 1.28693436e+02 2.29809708e+02 2.71528992e+02
      -2.08596497e+01 -1.48492422e+01 -6.77500000e+01 1.37500000e+01
      -5.72756500e+01 2.58093967e+01 -3.42946777e+01 2.33345242e+01 -9.
      -6. -1.55000000e+01 21. -5.00000000e-01 -9. 7.50000000e+00
      1.65000000e+01 -2.68700581e+01 -7.42462158e+01 0. 6.57962830e+02
      -3.26329773e+02 76. 7.50000000e+00 -1.37885818e+01 -1.30814753e+01
      1.18440384e+02 4.84368134e+01 -2.15000000e+01 71. -6.
      -4.55000000e+01 -5.25000000e+01 32. -3.35000000e+01 -12.
      2.87792450e+02 2.37587875e+02 2.71528992e+02 4.59619427e+00
      5.19723473e+01 1.85000000e+01 35. -2.51022911e+01 -6.71751451e+00
      4.63154945e+01 -6.54073792e+01 -1.15000000e+01 17. -6.
      5.50000000e+00 1.35000000e+01 32. -4.50000000e+00 -50.
      1.62634563e+01 0. -5.93969688e+01 5.05250000e+02 -3.62750000e+02
      -3.18198061e+00 3.74766579e+01 37. -3.05000000e+01 -3.45000000e+01
      8.55000000e+01 -1.27279224e+01 2.26274166e+01 -1.48492422e+01
      -2.82842712e+01 -2.96984844e+01 -4.94974756e+00 -3.53553391e+00
      4.38406219e+01 234. 192. 234.</_>
    <_>
      9.48406982e+02 -1.26395340e+02 -7.25000000e+00 104. 2.40416298e+01
      -2.65165043e+01 9.19238853e+00 -2.47487373e+01 -8. 6.
      -9.50000000e+00 -2. -5.15000000e+01 2.25000000e+01 1.95000000e+01
      -1.35000000e+01 2.12839142e+02 1.88090408e+02 1.85261978e+02
      -9.77575150e+01 -2.06828728e+01 -3.25000000e+00 2.75000000e+01
      -2.12132025e+00 -1.76776695e+00 -5.65685415e+00 -7.07106769e-01 3.
      2. -4.50000000e+00 -2. -1.75000000e+01 9.50000000e+00
      -4.50000000e+00 -3.50000000e+00 -2.61629505e+01 -2.96984844e+01
      -3.25269127e+01 7.09758423e+02 1.16849396e+02 335. -1.62500000e+01
      5.83363113e+01 8.23779373e+01 3.39411240e+01 4.77297096e+01 -7.
      8.45000000e+01 44. -7.50000000e+00 1.50000000e+00 -1.05000000e+01
      -8.50000000e+00 17. 1.59806137e+02 2.00818329e+02 1.63341660e+02
      1.10485435e+02 -2.77539406e+01 -33. 2.50000000e-01 -1.52027960e+01
      1.87383289e+01 -2.19203110e+01 -1.30814753e+01 2. -1.85000000e+01
      -12. 1.25000000e+01 -1.25000000e+01 8.50000000e+00 3.50000000e+00
      -5. 2.40416298e+01 1.69705620e+01 3.04055920e+01 2.94750000e+02
      1.71750000e+02 2.57033325e+02 -8.48528099e+00 79. 3.50000000e+00
      3.25000000e+01 4.35000000e+01 -2.82842708e+00 6.08111839e+01
      6.36396122e+00 -4.24264050e+00 4.66690483e+01 -9.19238853e+00
      -1.90918827e+01 7.07106781e+00 69. 118. 52.</_>
    <_>
      1.16867078e+03 -6.02808533e+01 -2.22500000e+01 -10.
      -4.34870682e+01 -1.13137083e+01 2.61629505e+01 1.69705620e+01 -9.
      -7.50000000e+00 -1. -8. 4. -4. 3.50000000e+00 -8.50000000e+00
      3.34461517e+02 3.37997040e+02 3.26683319e+02 -5.28562317e+01
      1.43189125e+01 -1.02500000e+01 2.95000000e+01 -1.59099026e+01
      -6.36396122e+00 -7.07106781e+00 1.69705620e+01 -3. 7.50000000e+00
      -13. 11. -4. 1. 1.15000000e+01 -5.00000000e-01 -2.33345242e+01
      5.65685415e+00 5.65685415e+00 3.12187653e+02 9.93485031e+01 64.
      -81. -1.03944695e+02 5.30330086e+01 -3.78302116e+01
      -1.09601555e+01 -50. -11. 37. -5. 4. -5.50000000e+00 -73.
      5.00000000e-01 3.11126976e+01 4.66690483e+01 9.12167740e+01
      -2.54558449e+01 -1.06066017e+01 -2.50000000e+00 14. 1.27279224e+01
      -1.48492422e+01 -1.06066012e+00 1.44956894e+01 9. -1. -2. -28. 5.
      -1.25000000e+01 -5. 1.85000000e+01 1.55563488e+01 3.81837654e+01
      2.47487373e+01 2.91750000e+02 5.57500000e+01 1.52027960e+01
      -9.05096664e+01 -7.25000000e+01 51. -3. -6. -3.67695541e+01
      -1.20208149e+01 1.41421354e+00 6.36396103e+01 -3.04055920e+01
      1.90918827e+01 -2.82842712e+01 -1.69705620e+01 11. 2. 41.</_>
    <_>
      9.87651367e+02 -6.06344070e+01 -47. -5.27500000e+01
      -3.92444267e+01 1.44956894e+01 -4.70226021e+01 1.42835571e+02
      -6.50000000e+00 -28. 2.15000000e+01 -9. 7. -5.75000000e+01 4. 69.
      1.57684814e+02 1.76069595e+02 1.73241165e+02 -1.93216934e+02
      -1.18440390e+01 -3.15000000e+01 -5.02500000e+01 -2.72236118e+01
      1.16672621e+01 -2.22738628e+01 4.24264069e+01 -4.50000000e+00 -23.
      1.75000000e+01 -3. 7. -3.45000000e+01 1. 28. -7.99030685e+01
      -7.84888535e+01 -8.13172836e+01 5.43765137e+02 -1.77483795e+02
      -31. -230. -4.31335144e+01 6.92964630e+01 -8.41457062e+01
      1.60513245e+02 6.50000000e+00 -4.05000000e+01 56. 14.
      3.50000000e+00 -1.09500000e+02 -1.05000000e+01 1.00500000e+02
      9.89949493e+01 1.02530487e+02 1.02530487e+02 -1.36825165e+02
      -6.61144867e+01 1.95000000e+01 -85. -3.53553391e+00 4.94974756e+00
      -7.07106781e+00 -2.54558449e+01 -3.50000000e+00 -1.25000000e+01 4.
      -3. -1.50000000e+00 -1.15000000e+01 -1.05000000e+01
      -1.05000000e+01 5.65685425e+01 7.14177856e+01 7.14177856e+01
      6.21500000e+02 -5.05000000e+01 -2.89913788e+01 -7.07106781e+01
      -32. 40. -41. 113. 9.19238853e+00 -2.75771637e+01 2.82842712e+01
      5.65685415e+00 9.19238853e+00 -4.87903671e+01 -3.53553391e+00
      7.70746384e+01 74. 79. 79.</_>
    <_>
      8.32441467e+02 -2.07005508e+02 -5.62500000e+01 3.45000000e+01
      -9.19238853e+00 2.86378250e+01 -1.73241158e+01 -5.40936699e+01
      3.05000000e+01 -5.15000000e+01 1.75000000e+01 -14. -5.05000000e+01
      36. -8. -8.50000000e+00 2.23445740e+02 1.75362488e+02
      1.73948273e+02 -1.31345078e+02 8.83883476e-01 3.72500000e+01 17.
      -4.24264050e+00 1.02530479e+01 -3.53553385e-01 -3.35875740e+01
      3.50000000e+00 -1.50000000e+00 8.50000000e+00 -3. -1.75000000e+01
      19. -3. -1.25000000e+01 -1.83847771e+01 -2.26274166e+01
      -2.40416298e+01 6.86070374e+02 2.33875565e+02 238. -9.92500000e+01
      5.26794548e+01 2.51022911e+01 -1.76776695e+00 -3.74766579e+01
      3.50000000e+00 43. 15. 1.35000000e+01 16. -1.75000000e+01 -14.
      -30. 2.96277740e+02 3.42239685e+02 3.54967590e+02 -8.66205788e+00
      1.99757671e+01 7.50000000e+00 -4.32500000e+01 1.06066012e+00
      1.52027960e+01 -8.83883476e+00 -2.12132025e+00 2.50000000e+00 -1.
      -2. 1.05000000e+01 -1. -1.05000000e+01 -5. 3. 7.07106769e-01
      1.41421354e+00 4.24264050e+00 5.06750000e+02 3.67500000e+01
      7.60139771e+01 5.58614349e+01 4.45000000e+01 -45. 1.45000000e+01
      9.50000000e+00 4.24264050e+00 2.61629505e+01 6.36396122e+00
      -2.47487373e+01 1.06066017e+01 2.82842708e+00 1.62634563e+01
      -2.26274166e+01 188. 222. 225.</_>
    <_>
      1.00250061e+03 2.74180664e+02 2.92500000e+01 1.69500000e+02
      2.26274166e+01 -1.02530479e+01 7.10642319e+01 4.84368134e+01 4.
      11. -9.50000000e+00 14. -7.50000000e+00 63. -37. 5.45000000e+01
      7.42462158e+01 1.72534058e+02 1.20208153e+02 -1.82080002e+01
      -4.77297068e+00 -1.75000000e+00 2. -1.41421354e+00 -1.02530479e+01
      -5.30330086e+00 -2.29809704e+01 0. 1. -5.50000000e+00 0.
      -7.50000000e+00 15. -22. 1.05000000e+01 1.48492422e+01
      2.12132034e+01 3.11126976e+01 8.80524719e+02 3.94035248e+02
      7.22500000e+01 198. 8.83883476e+00 3.74766579e+01 5.65685425e+01
      1.27279224e+01 1. 5.50000000e+00 15. 33. -4. 59. 2. 41.
      1.41421354e+00 1.34350290e+01 2.40416298e+01 1.25511456e+01
      1.96222134e+01 -1.52500000e+01 34. 3.53553385e-01 -1.13137083e+01
      2.05060959e+01 -4.94974756e+00 0. -1.50000000e+00 -3. -18. 4. 0.
      23. -5. 1.41421354e+00 -1.06066017e+01 0. 5.80500000e+02
      2.45500000e+02 7.84888535e+01 3.04055920e+01 4.50000000e+00
      2.75000000e+01 40. 18. 7.07106769e-01 7.07106781e+00
      1.06066017e+01 2.82842712e+01 -1.06066017e+01 4.59619408e+01
      -5.65685425e+01 3.11126976e+01 6. 42. 17.</_>
    <_>
      1.24998804e+03 1.20738480e+02 1.32500000e+01 1.17500000e+02
      3.18198061e+00 6.36396122e+00 7.07106781e+00 1.08894447e+02
      -3.50000000e+00 5. 3.50000000e+00 5.00000000e-01 4. 1.
      1.85000000e+01 6.15000000e+01 6.85893555e+01 4.59619408e+01
      4.03050880e+01 -3.16430283e+01 -1.96222134e+01 9.75000000e+00
      -4.25000000e+01 5.30330086e+00 -7.07106769e-01 -2.12132025e+00
      -3.04055920e+01 3.50000000e+00 1. -5.00000000e-01 5.00000000e-01
      -2. -2. -7.50000000e+00 -5.50000000e+00 1.48492422e+01
      4.94974756e+00 3.53553391e+00 7.76403259e+02 2.78600067e+02 -6.
      235. -6.36396122e+00 5.65685415e+00 8.13172836e+01 1.62634563e+01
      -1.50000000e+00 -3.50000000e+00 0. 3. 13. 51. 22. -13.
      6.36396103e+01 1.18086830e+02 1.90211731e+02 4.63154945e+01
      -1.09601555e+01 -1. 2.45000000e+01 2.12132025e+00 -1.41421354e+00
      -7.77817440e+00 9.89949512e+00 5.00000000e-01 5.00000000e-01 0.
      -1. -9. -9. 5. 3. -5.65685415e+00 -6.36396122e+00 -2.12132025e+00
      4.68750000e+02 1.99250000e+02 -5.65685415e+00 1.36118057e+02 -8.
      6. 71. -2.50000000e+00 0. -4.24264050e+00 0. 2.82842708e+00
      9.89949512e+00 3.81837654e+01 1.13137083e+01 -1.48492422e+01 49.
      93. 144.</_>
    <_>
      8.59665039e+02 2.38825317e+02 -1.57500000e+01 109. 1.18793938e+02
      -9.72271805e+01 1.67584305e+02 -4.94974747e+01 2.85000000e+01
      3.65000000e+01 -4.35000000e+01 -15. 5.25000000e+01 2.55000000e+01
      0. -35. 2.36880768e+02 3.09005676e+02 3.50017853e+02
      1.89151058e+01 -1.07833786e+01 1.25000000e+00 1. -1.41421354e+00
      -1.06066012e+00 -3.53553391e+00 8.48528099e+00 -1.50000000e+00
      5.00000000e-01 2.50000000e+00 -1. 2.50000000e+00 -2.50000000e+00
      0. 1. 4.94974756e+00 7.77817440e+00 2.12132025e+00 7.19834717e+02
      2.45719604e+02 -4.22500000e+01 1.56750000e+02 1.15611961e+02
      -1.16672623e+02 1.72534058e+02 -1.76776695e+00 30. 2.85000000e+01
      -54. -22. 52. 22. 4. -1.05000000e+01 7.14177856e+01 8.62670288e+01
      1.13137085e+02 1.41421356e+01 -6.01040745e+00 3.75000000e+00
      -2.42500000e+01 4.59619427e+00 -2.82842708e+00 -8.48528099e+00
      -2.15667572e+01 0. 1.50000000e+00 -5. 4. 1. -1. 4. -1.05000000e+01
      3.18198051e+01 2.68700581e+01 4.24264069e+01 4.67250000e+02
      1.80250000e+02 -1.94454365e+01 1.27986328e+02 72. -7.05000000e+01
      135. 17. 2.26274166e+01 1.27279224e+01 -3.32340202e+01
      -1.55563488e+01 3.32340202e+01 1.06066017e+01 9.89949512e+00 0.
      11. 18. 18.</_>
    <_>
      9.35502258e+02 3.30218872e+02 -9.50000000e+00 139. -9.22774353e+01
      1.66170101e+01 2.19910202e+02 -6.57609329e+01 -3.75000000e+01 -2.
      26. -2.55000000e+01 44. 58. 0. -49. 1.61220352e+02 1.12429977e+02
      6.92964630e+01 6.36396122e+00 -6.36396122e+00 -4.50000000e+00 -13.
      -3.18198061e+00 -3.18198061e+00 1.69705620e+01 -1.55563488e+01
      4.50000000e+00 0. 0. 4.50000000e+00 -1. 14. 0. 22. 8.48528099e+00
      1.90918827e+01 0. 7.51831299e+02 2.98929382e+02 6.05000000e+01
      7.62500000e+01 6.47002716e+01 2.29809704e+01 1.17733276e+02
      -9.05096664e+01 1.05000000e+01 11. -7.50000000e+00 -5.
      5.35000000e+01 17. -40. 0. 1.12429977e+02 1.31521866e+02
      1.52735062e+02 1.85615540e+01 1.25511456e+01 4.50000000e+00
      4.25000000e+00 -3.88908720e+00 5.30330086e+00 6.01040745e+00 0.
      -2.50000000e+00 1. 7.50000000e+00 5. -3.50000000e+00 0. 0. 0.
      -1.90918827e+01 0. 0. 4.91750000e+02 1.45250000e+02 2.96984844e+01
      5.33865623e+01 6.45000000e+01 -1.25000000e+01 52. -6.55000000e+01
      1.41421356e+01 2.47487373e+01 -3.18198051e+01 0. 3.32340202e+01
      1.90918827e+01 -1.97989902e+01 1.06066017e+01 93. 93. 108.</_>
    <_>
      6.51952454e+02 1.82787109e+02 3.36750000e+02 3.02500000e+01
      -1.62634563e+01 1.55209946e+02 -4.38406219e+01 -1.20561707e+02 12.
      -35. 7.45000000e+01 16. -79. 66. -1.65000000e+01 -33.
      1.70412735e+02 1.10308655e+02 4.17192993e+01 3.88908720e+00
      -2.12132034e+01 2.50000000e-01 1.32500000e+01 -8.48528099e+00
      -6.01040745e+00 -1.90918827e+01 3.18198061e+00 -12. 0.
      -5.00000000e-01 -1. -1. -7. 1.25000000e+01 -13. 1.62634563e+01
      -1.41421354e+00 -7.77817440e+00 5.79297241e+02 3.44714546e+01
      2.07500000e+02 1.08750000e+02 9.01561127e+01 -4.56083870e+01
      1.37178711e+02 -1.47431763e+02 2.05000000e+01 40. 29.
      -5.65000000e+01 -15. 73. -23. -5.35000000e+01 2.36880768e+02
      2.72943207e+02 2.72943207e+02 3.58856697e+01 3.69463310e+01 77.
      -4.22500000e+01 2.15667572e+01 3.78302116e+01 -6.36396122e+00
      -2.22738628e+01 3.50000000e+00 2. 20. 4.50000000e+00 -15. 2. -10.
      5.00000000e-01 2.47487373e+01 3.81837654e+01 3.81837654e+01
      3.84500000e+02 -37. -2.29809704e+01 1.94807922e+02 4.05000000e+01
      -86. 1.15500000e+02 -36. 7.07106781e+00 1.62634563e+01
      -1.83847771e+01 -3.25269127e+01 1.69705620e+01 4.45477257e+01
      1.06066017e+01 -3.04055920e+01 102. 115. 113.</_>
    <_>
      1.03379016e+03 1.02176933e+02 1.41750000e+02 6.72500000e+01
      -1.55563488e+01 2.51022911e+01 2.26274166e+01 -3.00520382e+01
      -1.75000000e+01 9.50000000e+00 2.25000000e+01 26. -46. 46.
      -2.50000000e+00 16. 1.95868576e+02 2.53144226e+02 2.87085358e+02
      -9.29845428e+01 -4.94974756e+00 1.32500000e+01 -7.50000000e-01
      -1.20208149e+01 1.09601555e+01 2.05060959e+01 2.01525440e+01
      -7.50000000e+00 4.50000000e+00 4.50000000e+00 -12. 8. -23.
      1.05000000e+01 -22. -7.77817440e+00 -6.50538254e+01
      -5.79827576e+01 5.68337097e+02 -4.77297068e+00 6. 2.25000000e+00
      2.79307175e+01 2.72236118e+01 1.30814753e+01 -2.47487373e+01 32.
      -1.05000000e+01 -9.50000000e+00 -6. -20. 2.35000000e+01 -6. 14.
      1.56977707e+02 1.51320847e+02 1.39300034e+02 -1.32052185e+02
      -1.59099030e+00 -13. -2.50000000e-01 -1.02530479e+01
      -2.47487378e+00 -8.13172817e+00 -7.07106781e+00 -9. 2.50000000e+00
      -1.50000000e+00 6. 3. -7.50000000e+00 1. -4. -3.11126976e+01
      -3.67695541e+01 -4.87903671e+01 7.70250000e+02 1.37500000e+01
      6.22253952e+01 1.06066012e+00 38. 34. 8. 5.45000000e+01
      1.69705620e+01 -2.40416298e+01 1.27279224e+01 -7.07106781e+00
      -3.18198051e+01 2.05060959e+01 0. 1.34350290e+01 162. 171. 216.</_>
    <_>
      8.63377380e+02 2.81782043e+02 2.97500000e+01 -2.43750000e+02
      3.57088928e+01 1.83847771e+01 5.33865623e+01 -1.13844193e+02 10.
      4.50000000e+00 -13. 36. 6.55000000e+01 -10. -90. -1.
      2.17788895e+02 1.87383301e+02 1.56977707e+02 -5.69220963e+01
      -7.28320007e+01 1.62500000e+01 -3.57500000e+01 2.93449306e+01
      1.41421354e+00 -3.14662514e+01 7.77817440e+00 4. 7.50000000e+00
      -13. 18. -1.45000000e+01 -10. -10. 13. -2.82842712e+01
      -4.17192993e+01 -3.25269127e+01 8.36684082e+02 3.11303772e+02
      8.77500000e+01 1.94500000e+02 -4.59619427e+00 7.91959610e+01
      8.48528137e+01 -3.18198051e+01 -2.50000000e+00 2. 23. 26. -19. 69.
      -10. -9. 1.35057388e+02 1.67584305e+02 1.97989899e+02
      3.19965820e+01 7.58372040e+01 -4.77500000e+01 -30. -8.13172817e+00
      -1.13137083e+01 3.32340202e+01 -1.34350290e+01 -2.50000000e+00 -3.
      -17. 26. 7. -2. -10. -9. 1.06066017e+01 4.31335144e+01
      3.11126976e+01 506. 5.85000000e+01 1.12783531e+02 1.59452576e+02
      14. 6.45000000e+01 -1.45000000e+01 9. 0. 0. 2.19203110e+01 0.
      -3.81837654e+01 3.74766579e+01 1.27279224e+01 0. 51. 51. 69.</_>
    <_>
      5.46416748e+02 -6.87661362e+01 7.22500000e+01 231. 3.25269127e+01
      -1.59099026e+01 -6.92964630e+01 1.35057388e+02 -9. 28.
      6.50000000e+00 -33. -41. 11. 7.45000000e+01 4.50000000e+00
      7.07106781e+00 2.61629505e+01 7.56604233e+01 -2.24506397e+01
      1.59099030e+00 -3.12500000e+01 27. 1.41421354e+00 -1.37885818e+01
      1.69705620e+01 -2.75771637e+01 1. 2. -6.50000000e+00 -1. 0. 14.
      1.55000000e+01 -4.50000000e+00 4.24264050e+00 1.06066017e+01
      2.05060959e+01 8.11758606e+02 -5.55078812e+01 1.21750000e+02
      -2.30250000e+02 -6.47002716e+01 7.91959610e+01 -7.84888535e+01
      -3.64160004e+01 -1.85000000e+01 0. 3.55000000e+01 2.25000000e+01
      -22. -33. -31. -1.50000000e+00 3.18905151e+02 3.22440704e+02
      3.40825470e+02 -3.53553385e-01 -4.94974756e+00 2.82500000e+01
      1.75000000e+00 1.73241158e+01 7.07106769e-01 -1.34350290e+01
      1.16672621e+01 3.50000000e+00 18. -2.50000000e+00 1.50000000e+00
      -7. -2. 6. 3.50000000e+00 -6.36396122e+00 -2.82842708e+00
      1.41421354e+00 5.64750000e+02 -3.87500000e+01 1.41421356e+01
      -1.53795731e+02 -71. 60. -39. -3.45000000e+01 -1.55563488e+01
      -2.54558449e+01 2.75771637e+01 1.48492422e+01 -5.65685415e+00
      -1.97989902e+01 -3.11126976e+01 -4.94974756e+00 237. 230. 237.</_>
    <_>
      4.75706085e+02 -9.24542084e+01 97. -3.75000000e+00 1.66877197e+02
      4.94974756e+00 1.15258408e+02 8.80347977e+01 31. 26.
      4.55000000e+01 -2.55000000e+01 1.85000000e+01 -2.95000000e+01 9.
      8.85000000e+01 1.03944695e+02 1.03237587e+02 1.68291412e+02
      -2.77539406e+01 -1.96222134e+01 2.45000000e+01 3.75000000e+00
      1.06066017e+01 1.20208149e+01 5.02045822e+01 1.06066012e+00 14.
      -24. 1.25000000e+01 -6.50000000e+00 8.50000000e+00 -3.50000000e+00
      -4. 1.05000000e+01 -2.33345242e+01 -3.95979805e+01 -5.51543274e+01
      7.12410095e+02 1.06066012e+00 51. -51. 8.13172817e+00
      -1.76776695e+00 -8.48528099e+00 -3.25269127e+01 -6.15000000e+01
      51. -3.75000000e+01 61. -47. 48. -47. -23. 3.21733582e+02
      2.99106171e+02 1.81726440e+02 2.10364273e+02 1.76776695e+00
      -1.95000000e+01 1.35000000e+01 1.02530479e+01 5.30330086e+00
      -2.12132025e+00 -9.89949512e+00 2.15000000e+01 -9. -2.50000000e+00
      -8. 4. 0. -7. 11. 2.47487373e+01 1.48492422e+01 3.18198051e+01
      2.06250000e+02 -2.02500000e+01 6.29325027e+01 -5.55078812e+01
      1.15000000e+01 -1.65000000e+01 -28. 3.25000000e+01 -6.85893555e+01
      4.66690483e+01 0. 3.46482315e+01 -1.55563488e+01 -8.48528099e+00
      2.19203110e+01 -5.09116898e+01 201. 184. 40.</_>
    <_>
      1.14622009e+03 -1.04298248e+02 -3.47500000e+01 -7.97500000e+01
      -3.53553391e+01 -1.37885818e+01 -3.18198061e+00 -1.48492422e+01
      -10. -7. 5. -1.55000000e+01 11. -1.25000000e+01 -8.50000000e+00
      -3.50000000e+00 3.59917358e+02 3.59917358e+02 3.59210236e+02
      -4.03050880e+01 -6.71751451e+00 2.12500000e+01 -1.97500000e+01
      4.24264050e+00 4.59619427e+00 -8.83883476e+00 -7.07106769e-01 3.
      2. 5. -1.50000000e+00 -1. -4.50000000e+00 -5.00000000e-01
      5.00000000e-01 -7.07106769e-01 -7.07106769e-01 0. 6.49300781e+02
      -3.65750977e+02 -165. -8.25000000e+00 -1.73241158e+01
      -1.26925667e+02 -8.73276901e+01 1.14551300e+02 -1.50000000e+00
      -14. -18. -4.75000000e+01 17. -3.95000000e+01 10. 70.
      1.09601555e+02 1.06773125e+02 1.31521866e+02 -5.70988731e+01
      2.65165043e+00 27. -2.32500000e+01 1.76776695e+00 2.93449306e+01
      -1.87383289e+01 1.06066017e+01 5.00000000e-01 3. 7. 8.50000000e+00
      -6. -9.50000000e+00 -2. 7. -2.33345242e+01 -3.32340202e+01
      -3.95979805e+01 4.76500000e+02 -194. -1.12783531e+02
      -2.47487378e+00 -2.55000000e+01 -95. -4.05000000e+01 32.
      -1.41421354e+00 -1.20208149e+01 -1.55563488e+01 -3.25269127e+01
      1.62634563e+01 -1.83847771e+01 4.94974756e+00 1.34350290e+01 152.
      171. 194.</_>
    <_>
      7.11349426e+02 -1.40714249e+02 3.15000000e+01 -12. -7.00035706e+01
      5.30330086e+01 -3.99515343e+01 -7.42462111e+00 -3. -39.
      4.35000000e+01 -2.50000000e+00 -44. -2.50000000e+00 2.
      -1.85000000e+01 2.45366058e+02 1.97282791e+02 1.72534058e+02
      -1.17026169e+02 -1.80312233e+01 5.75000000e+01 9.95000000e+01
      4.24264050e+00 -1.55563488e+01 -2.08596497e+01 -4.59619427e+00 -3.
      22. 4.50000000e+00 -2.50000000e+00 -39. 2.95000000e+01 12.
      -1.25000000e+01 -5.30330086e+01 -8.55599213e+01 -9.61665192e+01
      4.36108093e+02 1.34527069e+02 -3.45000000e+01 -8.92500000e+01
      -2.33345242e+01 6.50538254e+01 1.20208149e+01 -8.16708298e+01 -3.
      -30. 2. 40. 1.45000000e+01 -4.50000000e+00 -1.75000000e+01 -60.
      2.75771637e+02 2.89206665e+02 2.78600067e+02 2.65165043e+00
      -8.75044632e+01 66. -9.27500000e+01 -2.68700581e+01 4.80832596e+01
      -2.96984844e+01 -2.36880779e+01 -3. -9. 34. -16. -1.15000000e+01
      -1.35000000e+01 -1.15000000e+01 -16. 2.82842712e+01 1.48492422e+01
      1.97989902e+01 4.30750000e+02 1.77500000e+01 -1.31875412e+02
      1.79605118e+02 -5. -6.55000000e+01 9.25000000e+01 -1.85000000e+01
      0. -7.07106781e+00 -3.67695541e+01 -1.20208149e+01 2.82842708e+00
      7.70746384e+01 6.36396122e+00 -1.97989902e+01 152. 190. 175.</_>
    <_>
      6.61321594e+02 -4.29567375e+01 -1.72500000e+01 1.70500000e+02
      -4.94974756e+00 -5.90434151e+01 3.42946777e+01 6.32860565e+01
      3.85000000e+01 -1.85000000e+01 2.55000000e+01 -62. -2.15000000e+01
      12. 3.85000000e+01 -12. 2.17081787e+02 3.04763031e+02
      3.12541199e+02 -9.49290848e+01 -1.01293045e+02 -1.02500000e+01 3.
      3.25269127e+01 -6.25789490e+01 2.47487378e+00 -3.18198061e+00
      5.00000000e-01 1.85000000e+01 -1.65000000e+01 -25. 5.50000000e+00
      12. -2.55000000e+01 18. -5.16187935e+01 -3.04055920e+01
      -9.89949512e+00 7.16299194e+02 2.33698792e+02 1.95250000e+02
      -1.65250000e+02 1.41421354e+00 1.74301819e+02 -7.21248932e+01
      -4.63154945e+01 2.55000000e+01 -3.25000000e+01 8.05000000e+01 40.
      -14. -29. 1.35000000e+01 -21. 1.79605118e+02 1.56270599e+02
      1.79605118e+02 1.23743687e+01 2.26274166e+01 6.82500000e+01
      4.22500000e+01 0. 2.58093967e+01 -1.62634563e+01 5.40936699e+01
      -1.85000000e+01 2.75000000e+01 3.50000000e+00 1. -11. -11.
      2.65000000e+01 -8. -1.41421356e+01 9.19238853e+00 -1.41421356e+01
      490. -24. 9.89949512e+00 -7.14177856e+01 5. 19. -9.15000000e+01
      -3.65000000e+01 3.60624466e+01 -5.16187935e+01 3.60624466e+01
      9.19238853e+00 -3.32340202e+01 7.07106781e+00 -2.61629505e+01
      2.54558449e+01 58. 43. 73.</_>
    <_>
      6.78468933e+02 -1.10308655e+02 -1.44250000e+02 -9.22500000e+01
      -7.88424072e+01 -4.94974747e+01 -5.55078812e+01 4.45477257e+01
      -14. -2.15000000e+01 -17. -3. 3.35000000e+01 -34. -2.85000000e+01
      5.55000000e+01 1.39300034e+02 2.05768066e+02 2.79307190e+02
      -1.06066017e+01 1.37885818e+01 -6.37500000e+01 3.07500000e+01
      -1.76776695e+00 -2.26274166e+01 2.65165043e+01 2.05060959e+01 7.
      -1.95000000e+01 -8. -6. 1.75000000e+01 4. 9.50000000e+00
      3.50000000e+00 -2.61629505e+01 -4.03050880e+01 -4.03050880e+01
      9.05980591e+02 -2.65165043e+00 2.22500000e+01 -1.19500000e+02
      -1.13137083e+01 3.14662514e+01 1.76776695e+01 -9.97020569e+01
      -7.50000000e+00 -4.50000000e+00 3.05000000e+01 -14. 4. 2.
      -5.25000000e+01 -1.35000000e+01 3.31633087e+02 3.39411255e+02
      3.42239685e+02 1.34173508e+02 -4.26031837e+01 -4.57500000e+01 48.
      2.40416298e+01 -3.50017853e+01 4.17192993e+01 1.41421356e+01
      1.85000000e+01 -1.25000000e+01 -7.50000000e+00 -24. 14. 6.
      7.50000000e+00 5.50000000e+00 6.36396122e+00 -5.65685415e+00
      -8.48528099e+00 4.58500000e+02 100. 1.24097237e+02 -1.96222137e+02
      -75. 1.22500000e+02 -1.85000000e+01 -81. -4.38406219e+01
      1.27279224e+01 3.67695541e+01 2.61629505e+01 -2.82842708e+00
      -1.20208149e+01 -5.44472237e+01 -1.06066017e+01 224. 236. 248.</_>
    <_>
      6.47533020e+02 -8.11405029e+01 1.10500000e+02 1.81250000e+02
      1.17379723e+02 1.05358910e+02 -1.69352081e+02 3.11126976e+01
      3.05000000e+01 -1.05000000e+01 5.65000000e+01 -5.50000000e+00
      -1.05500000e+02 4. 133. -86. 2.92035095e+02 3.55674713e+02
      3.58503143e+02 -2.84610481e+01 2.06828728e+01 9.50000000e+00
      5.22500000e+01 -1.20208149e+01 -2.82842708e+00 1.09601555e+01
      3.60624466e+01 -5.00000000e-01 -1.05000000e+01 9.50000000e+00
      -5.50000000e+00 -1.15000000e+01 11. 2. 18. -1.34350290e+01
      -7.07106769e-01 -7.07106769e-01 6.73165649e+02 -3.25269127e+01
      1.31500000e+02 -5.15000000e+01 9.01561127e+01 9.29845428e+01
      -2.01878983e+02 1.70766281e+02 1. 5.65000000e+01 -2.25000000e+01
      41. -16. -8.35000000e+01 76. -1.00500000e+02 3.23147797e+02
      3.32340179e+02 3.02641693e+02 3.53553391e+00 -2.05060959e+01
      -5.50000000e+00 1.55000000e+01 1.06066012e+00 1.06066012e+00
      -3.53553385e-01 -1.94454365e+01 3. 5.00000000e-01 2.50000000e+00
      -4. -5. 2.50000000e+00 5. -1.45000000e+01 -2.12132025e+00
      -1.55563488e+01 2.82842708e+00 4.54750000e+02 1.72500000e+01
      8.06101761e+01 -7.74281921e+01 55. 50. -128. 1.61500000e+02
      -2.82842708e+00 3.95979805e+01 -1.76776695e+01 3.74766579e+01 0.
      -7.77817459e+01 3.46482315e+01 -1.13137083e+01 208. 251. 216.</_>
    <_>
      6.39931641e+02 -2.42184067e+02 -1.25000000e+00 1.41250000e+02
      -5.79827576e+01 -3.18198061e+00 3.74766579e+01 1.16672621e+01 -11.
      -16. -8. 5.00000000e-01 -100. 84. -5.50000000e+00 -7.
      1.26572113e+02 1.35764496e+02 6.78822479e+01 -1.35764496e+02
      -2.58093967e+01 6.25000000e+00 2.07500000e+01 -7.07106781e+00
      -1.06066012e+00 1.34350290e+01 5.30330086e+00 -7. -6. 4.
      9.50000000e+00 -20. 4. 3.50000000e+00 -1. -4.03050880e+01
      -1.69705620e+01 -2.68700581e+01 6.30385681e+02 3.28804665e+01
      -3.45000000e+01 6.50000000e+00 -3.50017853e+01 1.80312233e+01
      -6.36396122e+00 -4.24264050e+00 -6.15000000e+01 -17.
      2.05000000e+01 -32. 9. -17. -20. 38. 1.64755875e+02 1.48492432e+02
      1.39300034e+02 1.67230759e+02 -2.22738628e+01 2.76336266e-14 -3.
      -1.66170101e+01 -1.23743687e+01 -7.77817440e+00 -6.36396122e+00
      -2.50000000e+00 8. 5.00000000e-01 13. 1. 7. 7. -18. 4.17192993e+01
      3.53553391e+01 2.75771637e+01 147. 46. -4.03050880e+01
      -1.48492422e+01 5. 42. 32. 0. -2.89913788e+01 -2.89913788e+01
      9.19238853e+00 -5.02045822e+01 -2.26274166e+01 -1.41421354e+00
      -2.33345242e+01 2.33345242e+01 97. 67. 30.</_>
    <_>
      5.20607361e+02 -1.08364113e+02 90. 1.63750000e+02 9.22774353e+01
      -5.30330086e+00 -1.42482010e+02 6.08111839e+01 35. 9.50000000e+00
      2. -8.50000000e+00 -5.25000000e+01 53. 5.05000000e+01
      1.25000000e+01 6.15182915e+01 6.64680405e+01 8.76812439e+01
      -1.18970718e+02 5.12652397e+00 13. 7.25000000e+00 2.08596497e+01
      2.47487378e+00 1.80312233e+01 5.02429578e-15 12. 3.50000000e+00 2.
      2.50000000e+00 -3.50000000e+00 1. 1.50000000e+00 -4.50000000e+00
      -2.89913788e+01 -2.54558449e+01 -3.11126976e+01 9.16587158e+02
      3.12894745e+01 -9.25000000e+00 -35. -2.12132025e+00 2.15667572e+01
      1.06066017e+01 0. 0. 0. 26. 4.50000000e+00 17. -2. -1.50000000e+00
      1.50000000e+00 2.32638138e+02 2.32638138e+02 2.32638138e+02
      2.19379883e+02 1.78544464e+01 -1.67500000e+01 -8.50000000e+00
      2.12132025e+00 1.52027960e+01 9.89949512e+00 0. 0. 0. 26.
      -4.50000000e+00 12. 2. 1.50000000e+00 -1.50000000e+00
      5.44472237e+01 5.44472237e+01 5.44472237e+01 2.97500000e+02
      7.50000000e+00 1.34350290e+01 -2.40416298e+01 0. 1. 1. 0. 0. 0. 0.
      0. 3.53553391e+00 -3.53553391e+00 0. 0. 81. 81. 81.</_>
    <_>
      8.53477905e+02 2.01878983e+02 -6.27500000e+01 2.52750000e+02
      -1.52027960e+01 -7.28320007e+01 1.77837357e+02 -7.49533157e+01 8.
      -2.25000000e+01 12. -27. 1.35000000e+01 43. 33. -35.
      1.52735062e+02 1.62634567e+02 1.66877197e+02 3.88908720e+00
      2.05060959e+01 -2.27500000e+01 2.82500000e+01 -1.87383289e+01
      1.69705620e+01 -6.71751451e+00 2.12132034e+01 3. -1.25000000e+01
      1. 7. -1.50000000e+00 7. 5. -3. -9.89949512e+00 -4.24264050e+00 0.
      8.24486511e+02 3.75827240e+02 -1.67500000e+01 1.55250000e+02
      1.90918827e+01 -4.27799606e+01 1.07833786e+02 -1.55563488e+01
      -1.50000000e+00 2.05000000e+01 -1.85000000e+01 -4. 8.15000000e+01
      0. 14. -14. 7.49533157e+01 1.09601555e+02 1.64755875e+02
      2.15667572e+01 -3.39411240e+01 2.75000000e+00 -1.07500000e+01
      1.62634563e+01 -1.09601555e+01 2.01525440e+01 -1.55563488e+01
      -5.00000000e-01 9.50000000e+00 -6.50000000e+00 -1. 1.35000000e+01
      0. -14. 14. 1.55563488e+01 1.90918827e+01 6.36396122e+00 527.
      3.04500000e+02 1.59099026e+01 1.05005356e+02 6. -2.75000000e+01
      5.75000000e+01 19. 2.12132025e+00 4.94974756e+00 3.53553391e+00
      -8.48528099e+00 2.89913788e+01 0. 1.97989902e+01 -7.07106781e+00
      42. 80. 115.</_>
    <_>
      1.03820947e+03 -8.00798416e+01 9. 1.14750000e+02 7.38926620e+01
      -2.36880779e+01 -5.83363113e+01 4.24264069e+01 5.50000000e+00 53.
      -2.55000000e+01 21. -5.05000000e+01 0. 42. -26. 2.50315796e+02
      2.36173660e+02 2.06475174e+02 -5.03813591e+01 -5.92201920e+01 94.
      -6.27500000e+01 6.11647377e+01 3.00520382e+01 -3.14662514e+01
      -2.89913788e+01 5.50000000e+00 35. -7.50000000e+00 21.
      -2.45000000e+01 0. -4. 7. 3.25269127e+01 3.39411240e+01
      5.09116898e+01 5.69397705e+02 2.56856537e+02 1.69750000e+02
      -6.05000000e+01 2.75771637e+01 1.32582520e+02 4.56083870e+01
      -7.31855545e+01 -4.50000000e+00 1.45000000e+01 24. -1.55000000e+01
      4.55000000e+01 -16. 6. -3.45000000e+01 1.27279221e+02
      7.07106781e+01 5.37401161e+01 6.73519211e+01 4.11889687e+01
      2.62500000e+01 -58. -1.27279224e+01 1.37885818e+01 -3.64160004e+01
      -1.87383289e+01 -1.45000000e+01 3.50000000e+00 4. 3.05000000e+01
      1.50000000e+00 -6. -6. -7.50000000e+00 4.66690483e+01
      4.80832596e+01 4.80832596e+01 505. 100. -5.16187935e+01
      5.23259010e+01 0. 24. 3.75000000e+01 -7.50000000e+00
      -1.41421356e+01 -1.41421356e+01 -1.34350290e+01 -2.05060959e+01
      2.19203110e+01 0. 3.11126976e+01 -2.05060959e+01 101. 57. 10.</_>
    <_>
      1.11351636e+03 2.50492584e+02 -1.45000000e+01 7.77500000e+01
      -1.06066017e+01 9.89949512e+00 7.49533157e+01 -4.91439209e+01
      -5.00000000e-01 -6.50000000e+00 5.00000000e-01 1.15000000e+01 33.
      31. -9.50000000e+00 -23. 2.58801086e+02 2.90620880e+02
      3.05470123e+02 -2.70468349e+01 -2.52790680e+01 -13.
      -2.75000000e+00 -2.12132025e+00 -7.07106769e-01 -7.07106781e+00
      -6.01040745e+00 -5.00000000e-01 -2.50000000e+00 -5.00000000e-01
      1.50000000e+00 1. -3. 9.50000000e+00 -5. 9.89949512e+00
      9.19238853e+00 5.65685415e+00 8.81231812e+02 2.77716187e+02 71.
      7.25000000e+00 1.44956894e+01 1.23743687e+01 1.56977707e+02
      -4.13657455e+01 -5.00000000e-01 12. 12. -8.50000000e+00 40. 29.
      -5.25000000e+01 30. 9.05096664e+01 9.47523117e+01 1.24450790e+02
      1.29046984e+01 6.48770447e+01 -8.50000000e+00 -4.32500000e+01
      -3.88908720e+00 1.87383289e+01 7.07106781e+00 -6.71751451e+00
      5.00000000e-01 -5. 2. 1.05000000e+01 15. -14. -6.50000000e+00 1.
      2.82842708e+00 1.41421354e+00 -8.48528099e+00 5.22500000e+02
      3.55000000e+01 5.72756500e+01 7.84888535e+01 8.50000000e+00
      -3.75000000e+01 74. -4. 0. 1.34350290e+01 4.94974756e+00
      -2.68700581e+01 7.07106769e-01 4.73761559e+01 -2.26274166e+01
      1.97989902e+01 56. 66. 108.</_>
    <_>
      1.07798425e+03 2.89560242e+02 3.15000000e+01 1.32500000e+02
      1.09601555e+01 2.01525440e+01 7.28320007e+01 -2.05060959e+01 2.
      1.50000000e+00 3. 8.50000000e+00 1.85000000e+01 3.25000000e+01 6.
      -10. 1.78190903e+02 2.10717819e+02 2.49608688e+02 4.13657455e+01
      -1.66170101e+01 -8. 6. -3.88908720e+00 -3.88908720e+00
      2.82842708e+00 -9.19238853e+00 -1. 1.50000000e+00 1.
      -3.50000000e+00 -2.50000000e+00 2.50000000e+00 -3. -7.
      2.40416298e+01 1.27279224e+01 1.34350290e+01 4.20198212e+02
      2.25390289e+02 325. -1.22250000e+02 9.58129654e+01 6.25789490e+01
      6.01040745e+00 -1.10308655e+02 1.65000000e+01 55. 30.
      3.50000000e+00 6. -1.50000000e+00 -26. -60. 2.62336609e+02
      3.13248291e+02 3.49310760e+02 1.75008926e+01 -1.32582521e+01
      3.50000000e+00 -1.72500000e+01 8.83883476e+00 -5.30330086e+00
      -3.53553385e-01 -7.77817440e+00 1.50000000e+00 9. -4.
      1.50000000e+00 0. -5.00000000e-01 -4. -9. 1.48492422e+01
      6.36396122e+00 7.07106781e+00 2.72250000e+02 1.71250000e+02
      1.85615524e+02 -2.89913788e+01 58. 4.45000000e+01 18. -48.
      1.34350290e+01 2.75771637e+01 2.05060959e+01 0. 1.27279224e+01
      -2.82842708e+00 -4.94974756e+00 -2.05060959e+01 128. 192. 225.</_>
    <_>
      8.52770752e+02 -1.61220352e+02 2.25000000e+01 5.35000000e+01
      2.09657166e+02 6.82358017e+01 -1.12076424e+02 9.01561127e+01 72.
      -3.05000000e+01 -2.85000000e+01 55. -78. -7.50000000e+00
      5.45000000e+01 23. 2.37587875e+02 2.80014282e+02 2.43951843e+02
      -2.54558449e+01 -8.76812439e+01 4.75000000e+01 2.50000000e+00
      7.38926620e+01 -1.23743687e+01 1.06066012e+00 -1.16672621e+01 -8.
      2.75000000e+01 3.50000000e+00 -19. -6. 4.50000000e+00
      -5.00000000e-01 -6. 3.95979805e+01 2.96984844e+01 2.19203110e+01
      5.26087463e+02 -9.54594193e+01 1.05000000e+01 -16. 2.89913788e+01
      1.41421356e+01 -6.82358017e+01 7.81352997e+01 20. 3. -34. 31.
      -1.15000000e+01 -34. 17. 4.25000000e+01 8.69741364e+01
      2.72943207e+02 3.50724976e+02 8.02566223e+01 3.88908720e+00
      2.75000000e+01 8.50000000e+00 -3.32340202e+01 2.82842708e+00
      -2.79307175e+01 2.86378250e+01 -20. 3. 11. 2. -1.15000000e+01 -9.
      11. 2.50000000e+00 2.05060959e+01 3.11126976e+01 9.89949512e+00
      2.33500000e+02 -12. 6.71751451e+00 1.76776695e+00 4.15000000e+01
      29. -6. 2.65000000e+01 4.45477257e+01 -1.41421356e+01
      -1.20208149e+01 1.20208149e+01 0. -2.54558449e+01 1.27279224e+01
      2.47487373e+01 18. 92. 157.</_>
    <_>
      9.45578552e+02 -2.90444122e+02 8.62500000e+01 77. -2.93449306e+01
      -4.59619408e+01 -1.90918827e+01 4.38406219e+01 -48. 6.05000000e+01
      17. -48. -26. 1. 5.35000000e+01 -9.85000000e+01 3.39411255e+02
      3.30218872e+02 3.30218872e+02 -5.74524269e+01 -1.78544464e+01
      1.17500000e+01 21. -3.85373192e+01 2.19203110e+01 -6.36396122e+00
      3.11126976e+01 -14. -2.65000000e+01 46. 19. -8. 1. -2.50000000e+00
      -2.05000000e+01 -1.13137083e+01 -2.12132025e+00 -2.12132025e+00
      5.48007751e+02 -5.55078812e+01 -3.17500000e+01 -2.20750000e+02
      2.01525440e+01 1.34350296e+02 7.84888535e+01 1.66170101e+01
      -5.00000000e-01 0. -17. 49. -1.45000000e+01 1.35000000e+01
      -3.35000000e+01 -44. 2.90620880e+02 3.04055908e+02 3.04055908e+02
      3.42946777e+01 -2.12132025e+00 3.97500000e+01 2.25000000e+00
      4.41941757e+01 -1.20208149e+01 7.07106769e-01 3.07591457e+01
      3.35000000e+01 0. 17. 0. -1.45000000e+01 1.50000000e+00
      5.00000000e-01 10. -6.36396122e+00 -7.07106781e+00 -7.07106781e+00
      3.41500000e+02 -6.50000000e+00 -6.78822479e+01 -8.06101761e+01
      -2.45000000e+01 1.20500000e+02 56. -58. -3.46482315e+01 0. 0.
      3.46482315e+01 -2.05060959e+01 1.06066017e+01 -2.05060959e+01
      -6.15182915e+01 210. 210. 220.</_>
    <_>
      9.48406982e+02 2.14076584e+02 -16. 9.47500000e+01 -2.96984844e+01
      -3.11126976e+01 1.42128464e+02 -3.35875740e+01 -61. 37. -39. 16.
      2.45000000e+01 3.65000000e+01 -1.35000000e+01 -5. 1.15965515e+02
      6.50538254e+01 6.57609329e+01 -1.60866795e+01 4.43709488e+01 -45.
      1.16750000e+02 1.62634563e+01 -2.19203110e+01 1.76776695e+01
      2.86378250e+01 8. 5. -17. -7. -1.95000000e+01 4.65000000e+01
      -5.50000000e+00 17. -4.52548332e+01 -1.41421354e+00 1.20208149e+01
      9.35855835e+02 -3.50017853e+01 -9.95000000e+01 -9.45000000e+01
      -1.43189117e+02 6.32860565e+01 -2.26274166e+01 1.69705620e+01
      -9.50000000e+00 -64. 46. 1.85000000e+01 14. -40. -3.50000000e+00
      2.65000000e+01 2.37587875e+02 1.62634567e+02 1.18086830e+02
      -1.47431763e+02 3.99515343e+01 -1.65000000e+01 -5.55000000e+01
      4.77297096e+01 2.36880779e+01 -2.68700581e+01 -5.09116898e+01
      1.25000000e+01 -16. -4. 1.85000000e+01 5. -11. 3.50000000e+00
      -2.65000000e+01 5.65685425e+01 4.10121918e+01 1.34350290e+01
      8.58500000e+02 -1.75000000e+01 -7.00035706e+01 -2.12132025e+00
      -77. 18. 3.25000000e+01 -1.95000000e+01 -2.40416298e+01
      -9.89949512e+00 -2.82842708e+00 1.27279224e+01 -4.94974756e+00
      1.41421356e+01 2.82842708e+00 -3.04055920e+01 255. 185. 86.</_>
    <_>
      1.25051831e+03 4.41941757e+01 2.25000000e+01 -10. -4.94974756e+00
      3.53553391e+00 2.82842708e+00 -1.27279224e+01 -6.50000000e+00
      3.50000000e+00 2. 8. -5.00000000e-01 -3.50000000e+00
      1.50000000e+00 -5.00000000e-01 3.12541199e+02 3.18198059e+02
      3.31633087e+02 -5.97505226e+01 6.71751451e+00 -2.50000000e+00
      2.82616642e-14 -7.07106769e-01 -2.12132025e+00 2.82842708e+00
      1.41421354e+00 1.50000000e+00 -5.00000000e-01 -2. 4.
      4.50000000e+00 1.50000000e+00 -3.50000000e+00 5.00000000e-01
      -1.83847771e+01 -2.12132034e+01 -2.05060959e+01 4.97096069e+02
      3.53553385e-01 -1.72750000e+02 -1.60750000e+02 5.72756500e+01
      -8.23779373e+01 8.37921524e+01 -1.11015762e+02 36. -4. -64.
      1.15000000e+01 5.75000000e+01 0. -6.15000000e+01 7.50000000e+00
      1.51320847e+02 7.49533157e+01 4.17192993e+01 4.17192993e+01
      4.59619427e+00 3.12500000e+01 2.32500000e+01 1.41421354e+00
      2.86378250e+01 1.06066012e+00 3.81837654e+01 -1. -4. 13.
      -8.50000000e+00 -1.15000000e+01 0. 7.50000000e+00 -4.50000000e+00
      8.48528099e+00 2.40416298e+01 2.05060959e+01 4.17250000e+02
      -9.75000000e+00 -1.65109436e+02 -1.65462982e+02 17.
      -1.26500000e+02 4.25000000e+01 -1.52500000e+02 1.69705620e+01
      7.07106781e+00 -6.92964630e+01 2.19203110e+01 4.73761559e+01
      1.27279224e+01 -7.49533157e+01 7.77817440e+00 126. 44. 40.</_>
    <_>
      8.14056702e+02 2.18319214e+02 1.00500000e+02 1.32500000e+01
      4.91439209e+01 -6.32860565e+01 1.62281006e+02 -1.12429977e+02 -3.
      4.85000000e+01 -34. -5.50000000e+00 76. 2.55000000e+01
      -2.85000000e+01 -5.85000000e+01 2.86378235e+02 1.71119843e+02
      5.30330086e+01 -5.28562317e+01 7.33623276e+01 -18. 7.47500000e+01
      1.94454365e+01 2.47487378e+00 -2.47487378e+00 3.46482315e+01 9.
      1.05000000e+01 -24. 2.15000000e+01 -3. 5.50000000e+00
      1.95000000e+01 -6.50000000e+00 -4.17192993e+01 -5.37401161e+01
      -2.89913788e+01 8.32087891e+02 2.00995102e+02 211. -1.93250000e+02
      1.66170101e+01 1.23743687e+01 9.89949493e+01 -2.10364273e+02
      2.50000000e+00 7. 5.95000000e+01 -17. 4.95000000e+01
      1.45000000e+01 -74. -2.15000000e+01 3.43653900e+02 2.80721405e+02
      2.05768066e+02 -2.17435341e+01 1.94454360e+00 3.45000000e+01
      1.97500000e+01 -1.06066012e+00 1.23743687e+01 -1.41421354e+00
      -1.52027960e+01 -2.50000000e+00 1. 5.50000000e+00 5.
      -4.50000000e+00 2.50000000e+00 20. -1.35000000e+01 8.48528099e+00
      5.16187935e+01 9.12167740e+01 6.17750000e+02 1.35250000e+02
      5.86898613e+01 -1.80665787e+02 8. -20. 7.55000000e+01 -88.
      1.13137083e+01 0. 2.19203110e+01 -1.20208149e+01 4.31335144e+01
      2.82842708e+00 -9.12167740e+01 3.53553391e+00 210. 103. 38.</_>
    <_>
      8.23956177e+02 -2.50139023e+02 -3.97500000e+01 -1.41500000e+02
      -9.68736267e+01 5.26794548e+01 -1.39300034e+02 -9.89949512e+00
      -2.85000000e+01 -8.50000000e+00 33. 3.35000000e+01 -9.75000000e+01
      -1.85000000e+01 -4.50000000e+00 -9.50000000e+00 3.37997040e+02
      3.50724976e+02 3.60624451e+02 -1.18440390e+01 -2.38648548e+01
      -1.57500000e+01 3.50000000e+00 -2.82842712e+01 3.88908720e+00
      -4.94974756e+00 1.13137083e+01 -9.50000000e+00 -4.50000000e+00 -1.
      5.00000000e-01 -3.50000000e+00 -5.00000000e-01 4.50000000e+00
      -5.00000000e-01 0. 0. 0. 6.47179504e+02 -1.92863373e+02
      -1.14750000e+02 -94. -1.24097237e+02 8.55599213e+01
      -1.25865005e+02 7.77817440e+00 -8.50000000e+00 -52. 2.75000000e+01
      2.25000000e+01 -61. -12. 3.50000000e+00 -5.00000000e-01
      2.43244736e+02 2.63750824e+02 2.68700592e+02 4.26031837e+01
      -3.02288151e+01 -3.25000000e+00 1.15000000e+01 -1.76776695e+00
      -7.77817440e+00 1.06066017e+01 -7.07106769e-01 -5.00000000e-01 -1.
      -2.50000000e+00 -3.50000000e+00 -23. 3. -5.00000000e-01
      -2.50000000e+00 2.54558449e+01 3.32340202e+01 3.53553391e+01
      3.38250000e+02 -1.02500000e+01 -7.91959610e+01 -5.97505226e+01
      -93. 74. -56. 1.25000000e+01 -4.94974756e+00 -4.45477257e+01
      2.12132034e+01 1.83847771e+01 -1.27279224e+01 -2.68700581e+01
      2.12132025e+00 5.65685415e+00 90. 106. 106.</_>
    <_>
      7.94964783e+02 6.62912598e+01 3.55000000e+01 7.47500000e+01
      2.79307175e+01 8.37921524e+01 -3.88908730e+01 -6.71751451e+00 37.
      -3.25000000e+01 46. 1.85000000e+01 -3.55000000e+01 4.05000000e+01
      1.50000000e+00 2. 1.98697006e+02 1.92333038e+02 1.41421356e+02
      -1.51144073e+02 1.75008926e+01 -2. 4.25000000e+00 4.59619427e+00
      1.87383289e+01 -7.07106781e+00 -5.30330086e+00 4. -4.50000000e+00
      5. 5.50000000e+00 -1.15000000e+01 -4.50000000e+00 -5.50000000e+00
      -3. -2.61629505e+01 -3.25269127e+01 -4.66690483e+01 8.94313293e+02
      -8.64438019e+01 1.07250000e+02 30. 1.57331253e+02 -8.13172836e+01
      -1.76776695e+00 -1.06066012e+00 4.65000000e+01 42. -1.25000000e+01
      -1.85000000e+01 -2.05000000e+01 10. 17. -6.50000000e+00
      2.69407684e+02 3.16783844e+02 2.78600067e+02 1.40537476e+02
      -2.56326218e+01 -7.50000000e-01 28. -6.71751451e+00 7.77817440e+00
      -7.42462111e+00 6.01040745e+00 -2.45000000e+01 -9. -6.50000000e+00
      -1.05000000e+01 -1.50000000e+00 -1. 9. -2.50000000e+00
      3.60624466e+01 1.13137083e+01 8.48528099e+00 4.10250000e+02
      2.72500000e+01 7.03571243e+01 -5.65685415e+00 1.26500000e+02 -20.
      8.50000000e+00 -5.50000000e+00 5.16187935e+01 1.13137083e+01
      1.62634563e+01 1.20208149e+01 -2.12132034e+01 9.19238853e+00
      -8.48528099e+00 -6.36396122e+00 127. 203. 177.</_>
    <_>
      5.44825745e+02 -2.65165039e+02 2.75000000e+00 -1.25000000e+00
      -4.06586418e+01 -2.82842708e+00 -2.36880779e+01 -1.34350296e+02
      -2.05000000e+01 33. -2.05000000e+01 3.95000000e+01 -84.
      4.25000000e+01 -1. -29. 2.02232544e+02 1.40714249e+02
      1.77483795e+02 -3.00520382e+01 -1.55563488e+01 7.57500000e+01
      -3.25000000e+00 1.94454365e+01 6.36396122e+00 -7.95495148e+01
      5.44472237e+01 -1.05000000e+01 16. 2.05000000e+01 -1.45000000e+01
      -46. 1.50000000e+00 -6. 25. -5.23259010e+01 -2.47487373e+01
      -2.19203110e+01 1.06702417e+03 1.32582520e+02 6.02500000e+01
      -3.92500000e+01 -6.71751451e+00 3.95979805e+01 -4.34870682e+01
      -1.18086830e+02 8.50000000e+00 -2. -21. 66. -31. -2.45000000e+01
      6.50000000e+00 -3.50000000e+00 2.25567062e+02 1.89504623e+02
      2.20617310e+02 3.53553391e+01 -3.85373192e+01 -3.22500000e+01
      9.42500000e+01 -3.14662514e+01 -1.27279224e+01 4.49012794e+01
      -1.06066017e+01 1.50000000e+00 -12. 13. -12. 6. 1.15000000e+01
      1.95000000e+01 -6.50000000e+00 -1.76776695e+01 -3.95979805e+01
      -3.39411240e+01 622. 193. 1.20208153e+02 -1.40714249e+02
      8.50000000e+00 9.75000000e+01 6. -102. 3.53553391e+00
      4.24264050e+00 1.69705620e+01 2.75771637e+01 -1.20208149e+01
      3.04055920e+01 -8.76812439e+01 2.40416298e+01 132. 106. 154.</_>
    <_>
      1.00974847e+03 6.36396122e+00 -1.26500000e+02 -4.75000000e+01
      -1.49906631e+02 -2.82842708e+00 1.15965515e+02 -6.71751480e+01
      -40. -42. 2.35000000e+01 -1.95000000e+01 37. 30. -64. 20.
      2.59508179e+02 2.29102600e+02 1.77483795e+02 -4.49012794e+01
      3.00520382e+01 -7.35000000e+01 21. -2.68700581e+01 -2.40416298e+01
      1.97989902e+01 -3.81837654e+01 1. -13. -4.50000000e+00
      5.00000000e-01 18. 7. 7. -20. -7.77817440e+00 -2.26274166e+01
      -2.89913788e+01 6.06874390e+02 6.20486183e+01 132. -1.58750000e+02
      9.75807343e+01 -6.36396122e+00 4.41941757e+01 -2.16374680e+02
      1.75000000e+01 3.35000000e+01 3. 0. 2.55000000e+01 8. -44. -46.
      3.18198059e+02 2.94156433e+02 2.97691956e+02 7.90191803e+01
      3.19965820e+01 4.15000000e+01 -2.27500000e+01 4.94974756e+00
      1.62634563e+01 7.42462111e+00 -2.54558449e+01 1.50000000e+00
      5.00000000e-01 11. 0. 1.50000000e+00 0. -9. 9. 1.13137083e+01
      -2.68700581e+01 -5.72756500e+01 2.78750000e+02 1.17500000e+01
      5.55078812e+01 -7.77817459e+01 5.45000000e+01 -4. 3.50000000e+00
      -1.00500000e+02 1.20208149e+01 1.97989902e+01 0. 0. 5.65685415e+00
      -7.07106769e-01 -9.89949512e+00 -4.73761559e+01 208. 233. 251.</_>
    <_>
      9.20299500e+02 3.21733589e+01 -1.65500000e+02 231. 3.74766579e+01
      -5.16187935e+01 5.09116898e+01 -4.94974747e+01 4.25000000e+01
      -3.05000000e+01 -31. 12. -1.95000000e+01 8.25000000e+01
      1.45000000e+01 -3.45000000e+01 1.76069595e+02 2.17788895e+02
      3.06884338e+02 -1.07833786e+02 4.59619427e+00 -54. 3.15000000e+01
      -1.69705620e+01 3.53553391e+00 -4.94974756e+00 2.40416298e+01
      -1.50000000e+00 2.50000000e+00 -1. 12. -1.05000000e+01
      1.25000000e+01 4.50000000e+00 3.50000000e+00 -5.58614349e+01
      -5.23259010e+01 -2.40416298e+01 8.68150330e+02 1.14020966e+02
      6.50000000e+00 9.72500000e+01 5.72756500e+01 -5.16187935e+01
      9.54594135e+00 -2.12132025e+00 0. 42. -3.95000000e+01
      1.25000000e+01 -3. 2.75000000e+01 6.50000000e+00 -1.45000000e+01
      1.90918839e+02 2.28395493e+02 2.14253357e+02 5.63917656e+01
      -2.88146019e+01 -2.35000000e+01 1.32500000e+01 2.82842708e+00
      -1.69705620e+01 1.76776695e+00 2.40416298e+01 9. -4.
      -9.50000000e+00 -6.50000000e+00 3. -1.15000000e+01 4.50000000e+00
      6.50000000e+00 4.10121918e+01 5.44472237e+01 1.76776695e+01
      5.30500000e+02 57. 6.01040745e+00 5.05581360e+01 3. 3.85000000e+01
      2.55000000e+01 -18. -7.77817440e+00 1.20208149e+01 -1.13137083e+01
      1.20208149e+01 -2.12132034e+01 3.04055920e+01 -6.36396122e+00
      1.06066017e+01 74. 72. 85.</_>
    <_>
      8.72216187e+02 -9.36916504e+01 -104. 1.50500000e+02
      -1.59099026e+01 -5.55078812e+01 4.91439209e+01 3.35875740e+01 -5.
      -8.50000000e+00 -17. -2.45000000e+01 -8.50000000e+00 41. 9.
      1.25000000e+01 1.64755875e+02 1.73948273e+02 2.02939651e+02
      -7.10642319e+01 2.47487378e+00 54. -3.50000000e+00 1.59099026e+01
      1.02530479e+01 -8.13172817e+00 2.58093967e+01 5. 8.50000000e+00 9.
      5.00000000e-01 -7.50000000e+00 -5. 1. 1.35000000e+01
      -4.59619408e+01 -5.51543274e+01 -5.58614349e+01 6.93141418e+02
      7.24784470e+00 1.45750000e+02 -208. -7.00035706e+01 6.89429092e+01
      -5.72756500e+01 -3.81837654e+01 -28. -6. 5.55000000e+01 0. -1.
      -23. -2.85000000e+01 -5.00000000e-01 2.43244736e+02 2.02232544e+02
      1.64755875e+02 1.66700424e+02 -1.04121475e+02 -4.72500000e+01
      -5.00000000e-01 -1.90918827e+01 1.37885818e+01 -5.44472237e+01
      2.33345242e+01 -2. -18. -2.50000000e+00 0. -6. -16. 1.65000000e+01
      3.50000000e+00 4.94974747e+01 5.51543274e+01 5.02045822e+01
      2.44500000e+02 132. 2.23799301e+02 -6.25789490e+01 1.75000000e+01
      6. -2. -6.45000000e+01 -2.26274166e+01 3.88908730e+01
      4.24264050e+00 1.41421354e+00 1.41421354e+00 -1.41421354e+00
      -7.07106781e+00 -2.12132025e+00 81. 67. 45.</_>
    <_>
      9.01207581e+02 1.19147491e+02 1.29500000e+02 200. 1.08894447e+02
      -8.55599213e+01 -1.48492422e+01 9.82878418e+01 7.50000000e+00
      1.15500000e+02 -3.50000000e+00 -3.05000000e+01 0. -21. 51. 33.
      1.48492422e+01 7.91959610e+01 1.55563492e+02 -2.36880779e+01
      -1.59099026e+01 26. 5.50000000e+00 2.12132025e+00 4.94974756e+00
      0. -3.53553391e+00 -5.00000000e-01 2.50000000e+00 3.50000000e+00
      -9.50000000e+00 0. 0. -3. 3. -7.77817440e+00 -1.13137083e+01
      -5.65685415e+00 8.89010010e+02 2.55795883e+02 36. 2.15750000e+02
      9.29845428e+01 3.21733589e+01 3.71231079e+01 7.14177856e+01
      1.05000000e+01 81. -2.25000000e+01 38. -50. 6.05000000e+01
      1.75000000e+01 8.50000000e+00 9.05096664e+01 1.07480232e+02
      1.05358910e+02 -2.20970879e+01 -2.38648548e+01 28. 2.25000000e+00
      3.88908720e+00 1.09601555e+01 -2.47487378e+00 1.13137083e+01
      5.00000000e-01 5. 1.50000000e+00 2. 0. -3.50000000e+00
      -1.50000000e+00 2.50000000e+00 0. 8.48528099e+00 6.36396122e+00
      670. 2.03500000e+02 -3.88908720e+00 1.46724655e+02 52.
      -7.50000000e+00 50. 6.65000000e+01 8.48528099e+00 5.23259010e+01
      -1.69705620e+01 6.36396122e+00 1.48492422e+01 1.48492422e+01
      2.26274166e+01 1.20208149e+01 48. 58. 64.</_>
    <_>
      8.11581787e+02 1.09424774e+02 4.72500000e+01 1.69500000e+02
      8.59134750e+01 1.28693436e+02 6.92964630e+01 -7.49533157e+01 45.
      3.35000000e+01 -9. 44. -35. 85. -1.05000000e+01 7.50000000e+00
      1.24450790e+02 6.36396103e+01 2.68700581e+01 -5.07349129e+01
      1.18263611e+02 1.57500000e+01 3.65000000e+01 -2.47487378e+00
      -9.89949512e+00 6.15182915e+01 4.73761559e+01 -7. 1.05000000e+01
      9. 0. 17. -6. 5.00000000e-01 7.50000000e+00 -3.95979805e+01 0. 0.
      1.14445227e+03 1.78544464e+02 6.65000000e+01 1.58500000e+02
      7.77817440e+00 -8.41457062e+01 4.59619427e+00 -4.13657455e+01
      1.50000000e+00 6.50000000e+00 -9. 2. 22. 3.75000000e+01 1.
      3.65000000e+01 2.31931030e+02 2.94863525e+02 2.27688385e+02
      -2.22738628e+01 6.71751451e+00 6.02915477e-14 -10. 4.24264050e+00
      -4.94974756e+00 3.14662514e+01 -2.36880779e+01 5.00000000e-01
      2.50000000e+00 9. 2. 7. 1.45000000e+01 -22. -1.15000000e+01 0.
      -1.06066017e+01 -3.11126976e+01 749. 1.85500000e+02 5.05581360e+01
      5.69220963e+01 0. -5.00000000e-01 44. -8.65000000e+01
      2.12132025e+00 2.12132025e+00 2.05060959e+01 0. 0. 0.
      -7.77817440e+00 0. 216. 230. 139.</_>
    <_>
      4.66513702e+02 -1.16495842e+02 148. 1.18750000e+02 6.11647377e+01
      5.30330086e+00 -1.42128464e+02 -8.73276901e+01 -15. 6.85000000e+01
      5.00000000e-01 5. -105. 54. -11. -9.50000000e+00 1.60513245e+02
      1.63341660e+02 1.78898010e+02 -1.53795729e+01 5.21491241e+01
      4.35000000e+01 4.17500000e+01 3.42946777e+01 3.18198061e+00
      1.00485916e-14 4.06586418e+01 9. 6.50000000e+00 4.50000000e+00 0.
      -3. 3. 8. 2.50000000e+00 -5.58614349e+01 -5.86898613e+01
      -5.30330086e+01 9.09162537e+02 -2.68523804e+02 7.75000000e+01
      -1.13750000e+02 1.05005356e+02 -4.59619427e+00 -6.92964630e+01
      -2.43951836e+01 3.45000000e+01 21. -7.50000000e+00 -11.
      -2.85000000e+01 -1.15000000e+01 -8. -9.50000000e+00 3.56381805e+02
      3.57088928e+02 3.52139191e+02 1.43189125e+01 -9.36916447e+00 -22.
      1.32500000e+01 -1.73241158e+01 1.23743687e+01 1.90918827e+01
      -2.47487378e+00 1.50000000e+00 -9. 7.50000000e+00 -6.
      3.50000000e+00 1.50000000e+00 0. 3.50000000e+00 2.82842708e+00
      3.53553391e+00 7.07106781e+00 6.43250000e+02 -1.82250000e+02
      7.91959610e+01 -1.00055611e+02 7.65000000e+01 -3.50000000e+00 -86.
      -2.05000000e+01 2.19203110e+01 1.27279224e+01 -4.94974756e+00
      -9.89949512e+00 -2.68700581e+01 -1.41421356e+01 -7.77817440e+00
      -2.82842708e+00 252. 244. 244.</_>
    <_>
      8.49765564e+02 5.88666382e+01 1.22500000e+02 -6.37500000e+01
      -5.72756500e+01 1.38592926e+02 -4.77297096e+01 -4.24264069e+01 0.
      -21. 69. 13. -27. 1.25000000e+01 -4.55000000e+01 2.50000000e+00
      2.76478760e+02 3.05470123e+02 3.24562012e+02 -5.07349129e+01
      -1.36118059e+01 -4.50000000e+00 -2.62500000e+01 9.89949512e+00
      -7.77817440e+00 1.02530479e+01 -3.53553391e+00 0. 2. -1. -2. 10.
      -1.25000000e+01 5.00000000e-01 -6.50000000e+00 1.34350290e+01
      2.26274166e+01 2.33345242e+01 7.90368591e+02 1.90388504e+02
      2.49500000e+02 -2.09750000e+02 2.68700581e+01 1.84554871e+02
      -1.00762718e+02 -9.12167740e+01 1.05000000e+01 -1.65000000e+01
      8.85000000e+01 5.75000000e+01 -27. -3.45000000e+01 -1.75000000e+01
      -3.55000000e+01 3.13248291e+02 2.96984863e+02 2.53851334e+02
      5.78059807e+01 -3.87140961e+01 -4.50000000e+00 -2.75000000e+00
      2.82842708e+00 2.75771637e+01 -1.80312233e+01 1.13137083e+01
      -1.50000000e+00 -6.50000000e+00 2.50000000e+00 7.50000000e+00 -27.
      -5.50000000e+00 -5.00000000e-01 4.50000000e+00 1.20208149e+01
      1.41421356e+01 2.47487373e+01 4.27500000e+02 189. 1.77130249e+02
      -1.22683029e+02 4.25000000e+01 63. -8.50000000e+00 -55.
      1.13137083e+01 1.34350290e+01 3.11126976e+01 1.83847771e+01
      5.65685415e+00 -1.76776695e+01 -1.62634563e+01 -2.61629505e+01
      174. 157. 124.</_>
    <_>
      8.15824463e+02 -3.15192841e+02 -9.45000000e+01 4.37500000e+01
      -1.53795731e+02 1.02884033e+02 -1.14197746e+02 2.12132025e+00 -7.
      -7.95000000e+01 53. 2.75000000e+01 -108. 5.50000000e+00
      -6.50000000e+00 5.25000000e+01 1.97282791e+02 3.07591461e+02
      3.12541199e+02 -3.44714546e+01 -8.66205788e+00 45. 5.37500000e+01
      1.80312233e+01 -1.41774902e+02 3.00520382e+01 -6.43467178e+01 -6.
      4.05000000e+01 -18. -7.50000000e+00 0. 5.50000000e+00
      -1.95000000e+01 9.50000000e+00 -6.01040764e+01 -5.02045822e+01
      -2.26274166e+01 6.11647339e+02 -1.75716034e+02 -7.62500000e+01
      -1.16250000e+02 -1.14551300e+02 -2.93449306e+01 -1.45310440e+02
      9.40452042e+01 -3. 0. -2.65000000e+01 29. 1.75000000e+01 -44. 16.
      -28. 2.27688385e+02 3.17490936e+02 3.59210236e+02 9.54594193e+01
      4.34870682e+01 -4.82500000e+01 4.87500000e+01 -1.69705620e+01
      -1.66170101e+01 -1.76776695e+00 3.11126976e+01 -3. 0.
      -1.25000000e+01 -3. 1.75000000e+01 1. 39. -54. 6.22253952e+01
      2.75771637e+01 1.41421354e+00 4.31250000e+02 -2.38750000e+02
      1.44956894e+01 -1.19501045e+02 -5.25000000e+01 0. -9.05000000e+01
      9.50000000e+00 0. 2.47487373e+01 -7.07106781e+00 7.07106781e+00 0.
      -4.87903671e+01 -1.34350290e+01 0. 182. 205. 224.</_>
    <_>
      8.62670288e+02 -2.04000305e+02 -2.37500000e+01 1.27500000e+01
      1.41421354e+00 1.46724655e+02 -1.14551300e+02 7.88424072e+01 24.
      -58. 2.50000000e+00 75. -9.65000000e+01 -3.50000000e+00
      2.25000000e+01 -12. 3.11126984e+02 3.39411255e+02 3.43653900e+02
      -2.33345242e+01 3.71231079e+01 -7.50000000e-01 2.87500000e+01
      6.36396122e+00 8.83883476e+00 -4.94974756e+00 1.87383289e+01 -1.
      0. -2.50000000e+00 9. -7.50000000e+00 5.00000000e-01
      5.50000000e+00 0. -1.69705620e+01 -5.65685415e+00 -5.65685415e+00
      8.41457092e+02 -2.17788895e+02 29. -6.05000000e+01 8.20243835e+01
      7.56604233e+01 -3.21733589e+01 2.65165043e+01 54. -31.
      1.35000000e+01 -2.25000000e+01 -2.05000000e+01 -13.
      -5.00000000e-01 -10. 3.30925964e+02 3.42239685e+02 3.25976227e+02
      2.93449306e+01 -1.66170101e+01 -11. 17. -1.27279224e+01
      4.94974756e+00 -6.01040745e+00 9.54594135e+00 5. 8. 5.50000000e+00
      -6.50000000e+00 2.50000000e+00 1. 6.50000000e+00 7.
      -7.07106781e+00 -7.07106781e+00 -9.19238853e+00 502.
      -9.95000000e+01 4.70226021e+01 -9.86413956e+01 8.85000000e+01 48.
      0. -6.50000000e+00 3.18198051e+01 -1.13137083e+01 5.65685415e+00
      -7.07106781e+00 -4.94974756e+00 -1.62634563e+01 -8.48528099e+00
      -2.19203110e+01 244. 254. 249.</_>
    <_>
      1.06684741e+03 -3.41179008e+01 -3.22500000e+01 106.
      -7.07106781e+00 7.95495148e+01 -7.74281921e+01 4.98510284e+01 -22.
      -22. -1.50000000e+00 27. -6.95000000e+01 0. 7.05000000e+01 0.
      2.19203110e+02 2.77892975e+02 2.63750824e+02 -3.02288151e+01
      -9.72271824e+00 5.02500000e+01 5. 1.55563488e+01 2.47487378e+00
      -1.37885818e+01 4.59619427e+00 12. 0. 1.50000000e+00 -7.
      5.00000000e-01 0. 6.50000000e+00 0. -3.25269127e+01
      -5.58614349e+01 -4.87903671e+01 8.68150330e+02 -8.36153793e+01
      -4.97500000e+01 1.25000000e+01 -5.02045822e+01 1.73241158e+01
      1.66170101e+01 4.59619427e+00 -25. -16. 1.05000000e+01 -8.
      -4.45000000e+01 21. -2.35000000e+01 -5. 2.40416306e+02
      2.27688385e+02 2.27688385e+02 1.31698639e+02 1.64402332e+01
      -1.07500000e+01 -2. -4.38406219e+01 2.22738628e+01 -1.02530479e+01
      3.88908720e+00 -30. 6. 1.50000000e+00 8. -1.05000000e+01 1.
      1.50000000e+00 -5. 2.54558449e+01 2.40416298e+01 2.40416298e+01
      4.39250000e+02 -1.20250000e+02 -4.24264050e+00 3.71231079e+01
      1.65000000e+01 -3.05000000e+01 -12. -3.50000000e+00 1.06066017e+01
      1.41421354e+00 0. -1.76776695e+01 -4.38406219e+01 9.89949512e+00
      0. 4.94974756e+00 125. 125. 125.</_>
    <_>
      7.22309570e+02 1.74655380e+02 2.24750000e+02 2.62750000e+02
      6.71751480e+01 8.23779373e+01 1.24450790e+02 -4.49012794e+01 14.
      22. 63. -7.75000000e+01 -16. 80. 1.95000000e+01 -75.
      2.02939651e+02 1.88090408e+02 1.49906631e+02 -3.18198061e+00
      4.24264050e+00 6.25000000e+00 -1.17500000e+01 -2.12132025e+00
      -3.53553385e-01 -6.36396122e+00 1.02530479e+01 1. 1. 3.
      -2.50000000e+00 2. -1. 3.50000000e+00 5. -7.07106769e-01
      -5.65685415e+00 -5.65685415e+00 8.17061890e+02 1.64402328e+02
      2.06500000e+02 2.54500000e+02 5.26794548e+01 1.13490639e+02
      8.34385986e+01 3.25269127e+01 1.35000000e+01 31. 43.
      -5.35000000e+01 -29. 56. 3.35000000e+01 -4.35000000e+01
      1.82433548e+02 1.42128464e+02 5.79827576e+01 3.88908720e+00
      -2.47487378e+00 5.00000000e-01 -2.05000000e+01 -1.76776695e+00
      6.71751451e+00 8.48528099e+00 7.07106781e+00 -5.00000000e-01 -2.
      6. -1.50000000e+00 0. -1. -5.50000000e+00 3.50000000e+00
      -7.07106781e+00 -3.53553391e+00 -2.82842708e+00 5.75500000e+02
      1.09500000e+02 1.41421356e+02 2.09303604e+02 4.75000000e+01
      7.65000000e+01 51. 7. 8.48528099e+00 3.46482315e+01 2.19203110e+01
      -3.39411240e+01 -1.69705620e+01 4.24264069e+01 2.54558449e+01
      -3.95979805e+01 140. 107. 45.</_>
    <_>
      4.94090851e+02 -1.34173508e+02 1.51500000e+02 1.74750000e+02
      -2.05060959e+01 3.95979805e+01 -1.45664001e+02 -4.77297096e+01
      -1.50000000e+00 4.50000000e+00 4.45000000e+01 5.50000000e+00
      -1.63500000e+02 8.75000000e+01 11. -5.35000000e+01 2.12839142e+02
      2.12132034e+02 2.11424927e+02 -3.94212036e+01 -6.80590286e+01 -35.
      -3.25000000e+00 1.55563488e+01 -3.25269127e+01 1.41421354e+00
      1.44956894e+01 1.50000000e+00 1.25000000e+01 -3.45000000e+01
      5.00000000e-01 1.50000000e+00 -5.50000000e+00 0. 1.75000000e+01
      -5.02045822e+01 -5.09116898e+01 -4.45477257e+01 7.53245483e+02
      -2.64281158e+02 7.25000000e+00 -6.65000000e+01 -2.38294983e+02
      1.07126678e+02 -1.39300034e+02 -1.69705620e+01 -3. -133. 100.
      -1.35000000e+01 -92. 2. 6. -6. 2.77185852e+02 2.45366058e+02
      2.23445740e+02 3.44714546e+01 -6.02808533e+01 1.22500000e+01 26.
      0. -2.47487378e+00 -3.04055920e+01 4.94974756e+00 -2. 1. 0.
      7.50000000e+00 -33. 7. 1. 4. 0. 3.53553391e+00 5.65685415e+00
      3.66750000e+02 2.75000000e+00 -2.36880779e+01 -3.04055920e+01
      -163. 9.25000000e+01 -2.15000000e+01 -4.50000000e+00
      -7.07106769e-01 -1.01116272e+02 6.50538254e+01 -1.34350290e+01
      -3.53553391e+00 -4.24264050e+00 7.77817440e+00 -4.24264050e+00
      113. 103. 78.</_>
    <_>
      4.05172180e+02 -8.16708298e+01 3.07500000e+01 -2.97500000e+01
      9.36916504e+01 -3.53553391e+01 3.53553385e-01 1.06066017e+01 3.
      2.75000000e+01 -25. 0. -8.50000000e+00 17. -3.65000000e+01
      3.55000000e+01 1.36471603e+02 2.05060974e+02 2.17081787e+02
      -8.55599213e+01 4.56083870e+01 1.04750000e+02 -7.50000000e-01
      2.22738628e+01 2.33345242e+01 -2.36880779e+01 1.34350290e+01 -3.
      2.25000000e+01 13. -5. 5.00000000e-01 -8. 1.45000000e+01
      2.50000000e+00 -5.30330086e+01 -4.24264069e+01 -4.03050880e+01
      9.19238831e+02 -2.44305389e+02 1.37250000e+02 -2.77500000e+01
      1.05712463e+02 -5.79827576e+01 -9.19238815e+01 6.04576302e+01 38.
      1.65000000e+01 12. -29. -5.75000000e+01 -3.50000000e+00 -6.
      4.55000000e+01 2.57386871e+02 2.92035095e+02 2.87792450e+02
      7.35391083e+01 -6.71751451e+00 -2.75000000e+00 -3.77500000e+01
      8.13172817e+00 1.41421356e+01 -1.41421354e+00 -2.43951836e+01 -8.
      2.50000000e+00 4. 5. -1.50000000e+00 -5.50000000e+00 2.
      -2.25000000e+01 5.79827576e+01 4.45477257e+01 4.03050880e+01
      4.45250000e+02 -1.45750000e+02 8.37921524e+01 5.37401161e+01 60.
      -6.15000000e+01 -4.65000000e+01 6.55000000e+01 2.75771637e+01
      2.19203110e+01 4.94974756e+00 -3.53553391e+01 -3.60624466e+01
      2.12132034e+01 -1.90918827e+01 6.36396103e+01 59. 90. 90.</_>
    <_>
      8.24132935e+02 2.28395493e+02 2.97500000e+01 1.04750000e+02
      3.95979805e+01 -2.72236118e+01 1.48492432e+02 6.01040745e+00 -8.
      25. -8. -7.50000000e+00 27. 27. -1.05000000e+01 48. 2.96984844e+01
      1.34350290e+01 6.36396122e+00 -5.26794548e+01 2.05060959e+01
      3.37500000e+01 2.07500000e+01 -4.45477257e+01 1.87383289e+01
      -1.62634563e+01 -1.30814753e+01 -15. -9. 19. -1.50000000e+00 -12.
      13. 3.50000000e+00 -9. -4.24264050e+00 -4.94974756e+00
      -2.12132025e+00 9.14642639e+02 3.36582825e+02 3.72500000e+01
      -5.67500000e+01 6.29325027e+01 6.61144867e+01 8.55599213e+01
      -2.86378250e+01 3.50000000e+00 2.65000000e+01 -2.15000000e+01 55.
      3.35000000e+01 9.50000000e+00 -4.45000000e+01 23. 1.42835571e+02
      1.34350296e+02 9.40452042e+01 6.01040745e+00 4.31335144e+01
      -1.07500000e+01 3.02500000e+01 -1.20208149e+01 -1.44956894e+01
      2.61629505e+01 -3.00520382e+01 -2.50000000e+00 1.05000000e+01
      2.50000000e+00 -1. 1.15000000e+01 9.50000000e+00 -4.50000000e+00
      1. -3.81837654e+01 -4.66690483e+01 -2.33345242e+01 6.90500000e+02
      1.25500000e+02 7.07106781e+01 2.47487373e+01 10. 54. 45. 11.
      1.41421356e+01 0. 8.48528099e+00 1.55563488e+01 -7.77817440e+00
      2.33345242e+01 -4.24264050e+00 -1.13137083e+01 163. 163. 128.</_>
    <_>
      9.75630554e+02 -9.91717224e+01 -2.67500000e+01 57. 3.39411240e+01
      7.67210846e+01 2.12132025e+00 1.40007141e+02 4.75000000e+01
      -4.45000000e+01 2.50000000e+00 25. -42. 8. 1.45000000e+01
      2.25000000e+01 2.10010712e+02 2.48901581e+02 2.38294983e+02
      -4.01283112e+01 -7.12410049e+01 6.97500000e+01 10. 8.76812439e+01
      -4.13657455e+01 2.40416298e+01 7.77817440e+00 -1.50000000e+00
      3.65000000e+01 -5.00000000e-01 -51. 29. -4. -1.45000000e+01
      3.65000000e+01 -6.29325027e+01 -6.64680405e+01 -7.00035706e+01
      5.06641998e+02 -1.52027954e+02 4.02500000e+01 6.42500000e+01
      5.86898613e+01 -1.52027960e+01 -3.25269127e+01 1.06419571e+02 31.
      9. 1.50000000e+00 -14. -48. 3. 40. 1.85000000e+01 6.29325027e+01
      5.72756500e+01 5.30330086e+01 3.57088928e+01 1.76776695e+01
      5.25000000e+00 -2.97500000e+01 1.34350290e+01 3.53553385e-01
      4.17192993e+01 5.30330086e+00 9. 1. -5.00000000e-01 -2. 13. -3.
      -21. 5.00000000e-01 1.20208149e+01 1.76776695e+01 1.62634563e+01
      3.07250000e+02 -1.33250000e+02 2.96984844e+01 1.00762718e+02 24.
      -14. -1.19500000e+02 71. 5.65685415e+00 8.48528099e+00 0.
      -5.65685415e+00 -2.96984844e+01 -6.36396122e+00 5.09116898e+01
      1.55563488e+01 11. 11. 11.</_>
    <_>
      1.05677112e+03 -1.09248001e+02 -32. -3.35000000e+01
      -3.88908730e+01 4.24264069e+01 -4.03050880e+01 4.17192993e+01
      2.50000000e+00 -3.05000000e+01 17. 15. -29. 6. -1.45000000e+01
      3.75000000e+01 2.35466553e+02 2.77892975e+02 3.26683319e+02
      -7.84888535e+01 8.48528099e+00 -3.50000000e+00 4.35000000e+01
      1.41421354e+00 -1.97989902e+01 2.82842708e+00 2.82842712e+01
      1.50000000e+00 5.50000000e+00 -5. -11. 1. 11. -7.50000000e+00
      1.95000000e+01 -7.84888535e+01 -4.31335144e+01 0. 9.72978943e+02
      4.94974747e+01 146. -1.16500000e+02 -5.23259010e+01 9.40452042e+01
      -2.15667572e+01 -6.32860565e+01 -8.50000000e+00 -7.50000000e+00
      61. 10. -10. -3.50000000e+00 -21. -3.65000000e+01 3.39411255e+02
      2.75771637e+02 2.02939651e+02 1.66170101e+01 -2.08596497e+01 -16.
      -26. -1.83847771e+01 2.12132025e+00 -4.84368134e+01
      -7.42462111e+00 -4.50000000e+00 -1.50000000e+00 -2. 5. -3.
      -1.05000000e+01 4. 5.50000000e+00 5.65685415e+00 -4.24264050e+00
      -4.94974756e+00 5.91500000e+02 85. 1.53088623e+02 -5.30330086e+00
      -2.50000000e+00 55. 2.75000000e+01 -18. 0. 6.36396122e+00
      4.45477257e+01 -4.94974756e+00 -4.94974756e+00 7.07106781e+00
      -1.20208149e+01 -2.33345242e+01 192. 202. 161.</_>
    <_>
      8.31734375e+02 -8.32618256e+01 -1.57500000e+01 1.04500000e+02
      -3.18198061e+00 -2.12132034e+01 -4.77297096e+01 1.01469826e+02
      9.50000000e+00 0. 1.50000000e+00 -1.75000000e+01 -12.
      -3.50000000e+00 31. 2.15000000e+01 1.36471603e+02 1.55563492e+02
      1.52735062e+02 -1.27102448e+02 -1.96222134e+01 2.50000000e-01
      7.25000000e+01 1.76776695e+00 -9.19238853e+00 -1.16672621e+01
      5.83363113e+01 2.50000000e+00 0. 5.50000000e+00 -8.50000000e+00
      -8. 3.50000000e+00 11. 4.50000000e+00 -8.69741364e+01
      -7.77817459e+01 -8.06101761e+01 7.16475952e+02 1.30991531e+02
      3.77500000e+01 1.23500000e+02 7.07106769e-01 -2.47487378e+00
      2.65165043e+01 3.42946777e+01 -1. 4. 14. -1.25000000e+01
      5.50000000e+00 20. 1.75000000e+01 -2. 7.99030685e+01
      8.41457062e+01 9.89949493e+01 3.94212036e+01 1.53795729e+01
      4.22500000e+01 -7.15000000e+01 1.06066017e+01 2.22738628e+01
      3.88908720e+00 1.02530479e+01 2. 5. 5. 3.50000000e+00
      5.50000000e+00 -16. -2.50000000e+00 2. 1.76776695e+01
      2.75771637e+01 2.68700581e+01 4.20250000e+02 8.62500000e+01
      -3.78302116e+01 1.29400543e+02 -1.15000000e+01 -18.
      -3.25000000e+01 1.75000000e+01 6.36396122e+00 -9.89949512e+00
      -4.24264050e+00 0. -7.07106781e+00 4.94974756e+00 2.05060959e+01
      0. 25. 24. 29.</_>
    <_>
      5.34749512e+02 -3.44537781e+02 -2.45000000e+01 -3.17500000e+01
      2.68700581e+01 -3.88908730e+01 -1.62634567e+02 1.34703842e+02 0.
      19. -31. 38. -84. -14. 2. 6.25000000e+01 1.96575684e+02
      2.80014282e+02 3.30925964e+02 -4.15425224e+01 -2.49255142e+01 27.
      1.07500000e+01 -1.13137083e+01 1.83847771e+01 6.36396122e+00
      6.01040745e+00 0. -7. 13. -31. 4. -5. 7. 5.50000000e+00
      -5.09116898e+01 -4.52548332e+01 -1.41421356e+01 8.55068848e+02
      -7.44229889e+01 -6.65000000e+01 2.75000000e+00 -1.99757660e+02
      1.82080002e+02 -8.62670288e+01 7.31855545e+01 -1.50000000e+00
      -112. 67. 2.55000000e+01 -38. -15. 20. 4.25000000e+01
      1.52735062e+02 1.73241165e+02 1.66170090e+02 1.85615540e+01
      -3.12894745e+01 1.03500000e+02 7.75000000e+00 -5.76292038e+01
      1.76776695e+00 3.74766579e+01 4.59619427e+00 -1.45000000e+01 74.
      52. -4.05000000e+01 5. -5. -10. 3.50000000e+00 7.07106781e+00
      1.34350290e+01 2.05060959e+01 5.21500000e+02 -44. -2.52790680e+02
      -6.18718452e+01 -3. 1.85000000e+01 -96. 4.25000000e+01
      1.48492422e+01 -2.89913788e+01 -2.12132034e+01 4.73761559e+01
      -3.53553391e+00 -3.60624466e+01 2.61629505e+01 0. 142. 132. 89.</_>
    <_>
      4.52018005e+02 -2.86555023e+02 -6.85000000e+01 1.25750000e+02
      1.06066012e+00 -8.52063675e+01 4.94974756e+00 5.62149887e+01 1.
      -2.50000000e+00 -3.50000000e+00 -81. 3.55000000e+01
      -1.45000000e+01 30. 2.50000000e+00 1.04651802e+02 8.83883514e+01
      6.36396103e+01 -5.48007774e+00 9.72271824e+00 -1.85000000e+01
      -2.62500000e+01 -7.42462111e+00 -1.02530479e+01 3.25269127e+01
      -1.66170101e+01 -5. -2.50000000e+00 -5.00000000e-01 -8.
      2.05000000e+01 -1.45000000e+01 -4. -2.50000000e+00 2.12132034e+01
      2.33345242e+01 1.97989902e+01 9.60604553e+02 3.11834076e+02
      8.87500000e+01 1.65250000e+02 1.02530479e+01 5.09116898e+01
      8.06101761e+01 -3.42946777e+01 2.50000000e+00 3. 1.65000000e+01
      1.75000000e+01 6. 35. 1.25000000e+01 -26. 1.85969086e+02
      2.11424927e+02 2.06475174e+02 5.83363113e+01 -9.82878418e+01
      3.77500000e+01 -1.27500000e+01 -3.18198061e+00 1.90918827e+01
      -6.08111839e+01 -1.76776695e+00 -5.00000000e-01 1. 9.50000000e+00
      -2.50000000e+00 -19. -10. 1.25000000e+01 0. 9.19238853e+00
      -1.62634563e+01 -1.13137083e+01 6.36250000e+02 3.22750000e+02
      4.94974756e+00 1.13490639e+02 5. -8. 128. -1.95000000e+01
      4.24264050e+00 0. 0. 4.24264050e+00 4.03050880e+01 2.47487373e+01
      -3.53553391e+00 -1.55563488e+01 116. 154. 130.</_>
    <_>
      8.66382568e+02 3.51255280e+02 65. 8.92500000e+01 -5.09116898e+01
      5.79827576e+01 7.95495148e+01 -1.27986328e+02 -37. 5. 2. 59. -29.
      4.15000000e+01 -15. -99. 1.85261978e+02 9.12167740e+01
      6.50538254e+01 -7.95495129e+00 -1.32582521e+01 18. -2.22500000e+01
      4.94974756e+00 2.05060959e+01 1.30814753e+01 2.82842708e+00 3. 0.
      5. 13. 0. 1.85000000e+01 -15. 26. -3.53553391e+01 -2.61629505e+01
      0. 8.59841858e+02 2.52083572e+02 3.87500000e+01 1.09250000e+02
      -7.35391083e+01 8.13172817e+00 -1.62634563e+01 -1.17733276e+02
      -1.65000000e+01 -8.50000000e+00 -2.50000000e+00 56. -25. 48. -15.
      -1.05000000e+01 1.17379723e+02 2.26274166e+01 1.13137083e+01
      5.30330086e+00 -7.77817440e+00 -4.25000000e+00 1.37500000e+01
      -7.07106769e-01 1.76776695e+00 -1.06066017e+01 -1.80312233e+01
      1.50000000e+00 5.00000000e-01 -7.50000000e+00 0. -25. -2. -15.
      1.05000000e+01 0. 0. 1.13137083e+01 6.15500000e+02 166.
      4.20728531e+01 8.80347977e+01 -5.15000000e+01 6. 25.
      -7.05000000e+01 -1.62634563e+01 -8.48528099e+00 1.76776695e+01
      3.04055920e+01 0. 3.53553391e+01 0. -1.48492422e+01 83. 0. 0.</_>
    <_>
      6.22077209e+02 -2.18319214e+02 -69. 2.64250000e+02 9.54594135e+00
      -8.37921524e+01 8.13172817e+00 7.70746384e+01 -1. 5.50000000e+00
      -17. -4.95000000e+01 -40. 3.55000000e+01 3.85000000e+01
      1.55000000e+01 7.00035706e+01 8.55599213e+01 8.48528137e+01
      2.65165043e+00 3.27036896e+01 -6.15000000e+01 3.57500000e+01
      -6.71751451e+00 -4.56083870e+01 4.91439209e+01 -9.89949512e+00 1.
      -5.50000000e+00 -8. -2.85000000e+01 25. 1.25000000e+01
      -1.45000000e+01 -5.00000000e-01 -1.76776695e+01 -2.33345242e+01
      -2.26274166e+01 9.24365356e+02 1.76246368e+02 -8.17500000e+01
      -1.55500000e+02 -1.71473389e+02 7.63675308e+01 6.01040745e+00
      -8.83883476e+00 -46. -2.25000000e+01 16. 48. 29. -2.05000000e+01
      -31. 1.65000000e+01 2.66579254e+02 2.82135620e+02 2.39002090e+02
      1.99757671e+01 -1.67937870e+01 6.22500000e+01 -4.15000000e+01
      1.06066012e+00 2.96984844e+01 -3.28804665e+01 2.43951836e+01 -22.
      1.35000000e+01 11. 17. -17. -1.55000000e+01 12. 5.00000000e-01
      1.34350290e+01 2.12132025e+00 -7.07106781e+00 635. 1.34500000e+02
      -1.06419571e+02 2.47487378e+00 -6.55000000e+01 -6. 62.
      -3.15000000e+01 -3.67695541e+01 -4.94974756e+00 -1.41421356e+01
      1.55563488e+01 3.81837654e+01 8.48528099e+00 -2.47487373e+01
      -4.24264050e+00 151. 169. 148.</_>
    <_>
      1.03096167e+03 -1.84201309e+02 -9.87500000e+01 -3.72500000e+01
      1.76776695e+01 1.23743687e+01 -2.19203110e+01 -5.05581360e+01
      2.35000000e+01 -3.05000000e+01 -1.95000000e+01 9. -2.65000000e+01
      8.50000000e+00 -2.55000000e+01 -4. 3.05470123e+02 2.51730011e+02
      2.73650330e+02 -3.04055920e+01 -7.38926620e+01 -2.52500000e+01
      3.02500000e+01 -8.48528099e+00 -3.18198061e+00 -1.69705620e+01
      1.73241158e+01 5.50000000e+00 -1.15000000e+01 -1.15000000e+01 9.
      -1.15000000e+01 5.00000000e-01 1.25000000e+01 4. -2.82842712e+01
      -3.95979805e+01 -3.60624466e+01 7.85418884e+02 -1.28870209e+02
      4.42500000e+01 -187. -3.21733589e+01 1.13844193e+02
      -4.06586418e+01 -7.74281921e+01 3.50000000e+00 -28. 4.05000000e+01
      2.25000000e+01 -53. 1.05000000e+01 -49. 1.50000000e+00
      3.17490936e+02 2.93449310e+02 2.78600067e+02 5.53311043e+01
      -6.69983673e+01 3.75000000e+00 11. 2.79307175e+01 -1.34350290e+01
      -2.47487378e+00 2.58093967e+01 9.50000000e+00 9. -1.55000000e+01
      -3.50000000e+00 1. -1.50000000e+00 7. 1.50000000e+00
      7.77817440e+00 1.62634563e+01 1.27279224e+01 4.17500000e+02 -58.
      -1.09601555e+01 -8.02566223e+01 -51. 3.55000000e+01 26.
      -8.15000000e+01 -4.94974756e+00 -1.90918827e+01 1.90918827e+01 0.
      -2.05060959e+01 2.89913788e+01 -4.31335144e+01 0. 188. 181. 168.</_>
    <_>
      9.41159119e+02 -2.08596497e+01 1.48750000e+02 -1.49250000e+02
      4.56083870e+01 7.07106781e+01 -2.33345242e+01 -1.05712463e+02 14.
      1.65000000e+01 31. -8. -20. 48. -86. -2.50000000e+00
      3.48603638e+02 3.47189423e+02 3.33754395e+02 -4.73761559e+01
      1.44956894e+01 1.97500000e+01 -8.62500000e+01 -6.01040745e+00
      1.62634563e+01 -5.23259010e+01 1.52027960e+01 14. -1.65000000e+01
      10. 8. -1. -12. 4. 5.00000000e-01 3.53553391e+00 -2.12132025e+00
      -7.07106781e+00 8.82115723e+02 -4.41941757e+01 37. -6.25000000e+01
      -7.45997620e+01 1.62281006e+02 4.77297096e+01 -9.36916504e+01 -8.
